tree
version=v4
num_class=1
num_tree_per_iteration=1
label_index=0
max_feature_idx=16
objective=binary sigmoid:1
feature_names=Column_0 Column_1 Column_2 Column_3 Column_4 Column_5 Column_6 Column_7 Column_8 Column_9 Column_10 Column_11 Column_12 Column_13 Column_14 Column_15 Column_16
feature_infos=[9:1404000010240] [-1:630] [1:14] [365452000:8274500096] [0:20000000] [7810208768:16999999602688] [1053836096:137594945536] [922249984:4200000000] [0:30000000] [60000002048:16999999602688] [4550722560:41428164608] [0:52948] [0:52637] [-16210:2195] [0:1523] [0:53555] [74136096:856984576]
tree_sizes=13807 14984 14877 13508 14675 13041 15570 14903 14754 13681 15064 14979 14082 15087 14581 13701 13886 14990 13756 14941 14700 15553 14083 14231 14853 13990 13650 14999 15195 13751 14774 13981 15515 15826 14054 14714 15576 15071 15838 15280

Tree=0
num_leaves=132
num_cat=0
split_feature=14 3 11 11 10 10 3 10 0 14 11 3 11 10 0 10 3 3 0 10 2 1 1 0 3 10 0 15 2 15 1 1 1 1 1 3 3 10 11 1 15 3 11 14 1 3 15 0 11 10 1 0 2 3 11 3 3 3 0 11 1 3 10 15 1 1 3 15 0 1 15 3 10 1 10 3 15 2 0 1 11 1 11 1 1 1 10 11 2 10 1 3 11 2 0 3 11 0 10 1 1 15 11 15 1 11 15 1 1 1 1 15 0 11 10 10 1 1 10 15 1 1 1 1 3 1 15 0 15 10 10
split_gain=44.8804 23.7399 19.1349 5.89348 6.88073 23.0991 8.24727 8.50554 9.11002 5.1128 4.98924 5.89631 5.23183 6.72215 4.67401 5.28281 5.77372 7.64887 4.35332 11.5432 12.0381 5.33872 6.55824 14.2189 5.52205 6.88726 4.71973 5.00049 4.16861 5.23471 4.09642 8.38712 12.7302 3.89699 3.64475 3.88391 6.17439 3.38897 3.27634 3.10297 2.9772 3.41144 2.89921 2.67953 2.67207 5.6105 5.01782 4.56401 4.26243 3.06082 2.67068 2.74521 2.58671 2.52918 2.52287 2.69438 2.76946 2.51619 2.45014 2.36374 3.8793 2.21506 2.18576 2.1777 2.09142 1.99355 2.55096 1.94831 2.28226 1.91175 1.86557 1.82721 1.84016 1.71765 2.09027 1.63808 3.10842 4.06408 4.37893 1.61246 1.39802 1.39425 4.41245 1.37405 1.35815 3.10975 2.48371 1.31925 1.25428 1.05729 0.982231 0.910526 0.892612 0.833846 0.793909 0.746725 0.731254 1.92478 2.39278 0.856727 1.06806 0.61871 2.21951 3.41686 1.64369 2.1528 1.97373 0.585364 0.560964 0.557222 0.551576 0.535443 0.523142 0.472301 0.454449 0.441548 0.329401 0.303999 0.250634 0.353286 0.243739 0.224962 0.124599 4.95476 0.886544 0.900295 0.672288 0.501659 0.106806 0.0687183 0.320571
threshold=0.87026646733284008 2639340032.0000005 6.5000000000000009 38.500000000000007 16160854528.000002 15920517120.000002 7144950016.000001 25984561152.000004 48050000.000000007 0.93788579106330883 2.5000000000000004 2976967936.0000005 28.500000000000004 25984561152.000004 9910000.0000000019 20718568448.000004 1342500032.0000002 1625499968.0000002 8020000.0000000009 9971672576.0000019 1.5000000000000002 44.500000000000007 51.500000000000007 43285000.000000007 2639340032.0000005 8990348288.0000019 30025000.000000004 13.500000000000002 1.5000000000000002 4.5000000000000009 24.500000000000004 49.500000000000007 43.500000000000007 16.500000000000004 50.500000000000007 3368249984.0000005 1372000000.0000002 9327511040.0000019 2.5000000000000004 24.500000000000004 12.500000000000002 4002999936.0000005 5.5000000000000009 1.1548125147819521 26.500000000000004 1933499968.0000002 12.500000000000002 21604500.000000004 18.500000000000004 25984561152.000004 78.500000000000014 90019500.000000015 3.5000000000000004 2462681728.0000005 3.5000000000000004 2279000448.0000005 2639340032.0000005 2137000000.0000002 29550000.000000004 3.5000000000000004 29.500000000000004 1625499968.0000002 9327511040.0000019 4.5000000000000009 22.500000000000004 69.500000000000014 3368249984.0000005 7.5000000000000009 16575000.000000002 25.500000000000004 4.5000000000000009 1342500032.0000002 23147515904.000004 16.500000000000004 12474756096.000002 2976967936.0000005 3.5000000000000004 2.5000000000000004 8750000.0000000019 49.500000000000007 1.5000000000000002 18.500000000000004 139.50000000000003 11.500000000000002 27.500000000000004 30.500000000000004 9971672576.0000019 25.500000000000004 3.5000000000000004 20718568448.000004 19.500000000000004 1192747520.0000002 27.500000000000004 1.5000000000000002 9025000.0000000019 1342500032.0000002 11.500000000000002 26050000.000000004 7635378688.000001 21.500000000000004 16.500000000000004 92.500000000000014 51.500000000000007 55.500000000000007 43.500000000000007 63.500000000000007 76.500000000000014 29.500000000000004 22.500000000000004 45.500000000000007 16.500000000000004 285.50000000000006 34900000.000000007 19.500000000000004 6934701312.000001 7252765696.000001 61.500000000000007 51.500000000000007 12474756096.000002 2.5000000000000004 16.500000000000004 60.500000000000007 18.500000000000004 23.500000000000004 1625499968.0000002 20.500000000000004 2.5000000000000004 9999999.5000000019 1.0000000180025095e-35 7857102592.000001 6522291968.000001
decision_type=8 2 2 2 2 2 2 2 8 10 2 2 2 2 8 2 2 2 8 2 2 2 2 8 2 2 8 2 2 2 2 2 2 2 2 2 2 2 2 2 2 2 2 10 2 2 2 10 2 2 2 8 2 2 2 2 2 2 10 2 2 2 2 2 2 2 2 2 8 2 2 2 2 2 2 2 2 2 10 2 2 2 2 2 2 2 2 2 2 2 2 2 2 2 8 2 2 8 2 2 2 2 2 2 2 2 2 2 2 2 2 2 8 2 2 2 2 2 2 2 2 2 2 2 2 2 2 10 2 2 2
left_child=1 2 33 4 5 18 10 89 -9 -5 91 14 30 -14 15 -12 -17 -18 19 20 -2 24 23 79 25 96 27 65 29 90 94 32 40 -1 35 36 -25 -3 53 42 107 -42 -22 69 45 46 67 48 -48 -46 81 -52 129 -28 -51 92 117 112 73 -7 -61 121 -54 -35 -47 66 -24 68 -16 75 -33 -70 -73 74 83 118 -77 78 120 -23 -55 82 110 -30 -75 -86 -87 -50 95 -8 -27 93 -56 -6 -13 -21 97 98 -20 100 114 102 -83 -104 -105 -106 -107 -32 -95 -39 -11 -84 -31 -72 -99 -41 -108 -57 119 -26 -78 -29 126 124 -124 -126 127 -93 -125 130 -40
right_child=3 37 -4 9 6 59 7 8 -10 50 11 12 13 -15 44 16 17 -19 21 88 39 22 26 34 43 28 38 61 58 57 31 70 -34 63 -36 -37 -38 109 52 115 41 -43 -44 -45 49 64 47 -49 87 54 51 -53 62 80 55 56 -58 -59 -60 60 -62 -63 -64 -65 -66 -67 -68 -69 71 -71 113 72 -74 84 -76 76 77 -79 -80 -81 -82 101 111 -85 85 86 -88 -89 -90 -91 -92 122 -94 108 -96 -97 -98 99 -100 -101 -102 -103 103 104 105 106 116 -109 -110 -111 -112 -113 -114 -115 -116 -117 -118 -119 -120 -121 -122 -123 123 128 125 -127 -128 -129 -130 -131 -132
leaf_value=-4.9779672862774325 -4.8070207904467805 -4.8967210893246671 -4.7070780770268215 -4.8934206568236647 -4.9812209928143618 -4.9317058211788227 -4.9867462704274592 -4.9621044818453717 -4.8068260150426605 -4.9928019325988391 -4.9868752695834075 -4.9461869632761077 -4.8203875067571182 -4.9750236464847797 -4.9002082983794573 -4.9803063313189639 -4.8156186771852045 -4.961221879570707 -4.8934206568236647 -4.9479871260996067 -4.9600323464865701 -4.9914213107724699 -4.8538051223886276 -4.8619338307390159 -4.9603022343765018 -4.930968911558252 -4.9798221488401415 -4.9522275867230245 -4.9558805172726617 -4.9461869632761077 -4.9466475695297971 -4.9289294276444071 -4.8057356098697408 -4.8498659164169995 -4.9527824556955844 -4.7929534997569752 -4.9817239711835981 -4.9880344780701904 -4.9806958408075017 -4.9488465366927343 -4.870635864836089 -4.9753692960046472 -4.8649617495511102 -4.9181654800987662 -5.0012746430520059 -4.9988023658510583 -4.8416928769009591 -4.9788834259864005 -4.9780617774643074 -4.915296479009724 -4.8899127891219489 -4.9782487951647152 -4.905883415637053 -4.954889186284464 -4.996718054443833 -4.8916938557297556 -4.9814391872247787 -4.9038287406039514 -4.8967210893246671 -4.929963016763014 -4.7771787301149518 -4.989659201122536 -4.9795728802898074 -4.9508859101596929 -4.9401042390466632 -4.954889186284464 -4.9524138475285104 -4.9911520400831106 -4.9885427406999376 -5.0005065192064828 -4.9936331563420122 -4.9762532761608131 -4.9048666123700517 -4.9917721105883572 -4.9780617774643074 -4.9896897558974986 -4.9307199731263491 -4.9838349931643329 -4.9770861168306118 -4.9358367309323539 -4.8831987602015001 -4.9982896212276859 -4.8894587425382499 -4.8871347573016024 -4.8990711128503364 -4.9204905169479725 -4.9922551289599877 -4.9185054260188394 -4.9401042390466632 -4.9404833809565698 -4.8335048824323703 -5.000405743812868 -4.9473251187454892 -4.9616045415347347 -4.9932501682883554 -4.9937498539123206 -4.9941937164190735 -4.9479871260996067 -4.9768824565335512 -4.9929739570441631 -4.9284018878238038 -4.9975665737787223 -4.9002082983794573 -4.9938154729480289 -4.9862114221180942 -4.9003272793386223 -4.9776797999358502 -4.9877684229232706 -4.9233030780054472 -4.9477681507187015 -4.9524138475285104 -4.9488465366927343 -4.9852469734904119 -4.9553897990225328 -4.9847267359238661 -4.9851961516050336 -4.9461869632761077 -4.9466475695297971 -4.9598961778962867 -4.995482149801493 -4.8520395257486273 -4.9181654800987662 -4.9596213541531853 -4.9682454338258673 -4.8912537752269341 -4.9533257877585735 -4.9543792511018134 -4.961221879570707 -4.9960739611787437 -4.9984956389417929 -4.9492666062856276
leaf_weight=0.91764719970524167 1.9812837266363184 0.81336910882964764 2.3010698719881475 0.75775412702932854 1.1887702359817951 1.028877163305878 1.8700537630356839 1.348663308657706 1.4737970177084205 3.3229951625689855 1.8909093812108029 0.69518727250397461 0.8481284724548448 0.72299476340413094 0.87593596335500645 1.1053477632813158 1.3278076904825868 1.3000001995824275 0.7577541270293302 0.75080225430428971 1.23743334505707 2.8780753081664452 1.9326206175610456 1.4042782904580247 1.2513370905071548 1.0080215451307624 1.0636365269310766 0.89679158153012373 1.0427809087559552 0.69518727250397283 0.70909101795405005 0.9524065633304416 1.4598932722583411 0.88983970880508401 0.917647199705243 1.5433157449588177 1.23743334505707 2.0925136902369563 1.1401071269065122 0.77860974520444903 0.8203209815546868 0.7438503815792501 0.74385038157924999 0.70213914522901077 13.18770255940035 7.542781906668095 1.7101606903597715 0.9871659269556402 0.92459907243028261 1.2026739814318723 0.70213914522901055 0.93850281788036238 0.98716592695563976 1.0010696724057198 5.3877013619057816 0.72994663612917088 1.2096258541569112 0.94545469060540188 0.81336910882964808 0.98021405423060093 1.362567054107785 2.4262035810388625 1.0427809087559579 0.84812847245484591 1.3000001995824275 1.0010696724057195 0.90374345425516356 2.8016047081910074 2.1898399083875124 10.775402723811565 3.6427813079208136 0.79946536337956764 0.96631030878052115 2.9823533990420401 0.92459907243028272 2.4331554537639022 1.00106967240572 1.4668451449833808 0.85508034517988551 1.1540108723565934 1.0149734178557992 6.8893058705143693 0.69518727250397183 1.0844921451061962 0.85508034517988551 0.75080225430429015 3.135294598992914 0.70909101795405149 1.3000001995824275 1.3139039450325072 1.2860964541323481 10.518183432985095 0.72994663612917055 1.3208558177575471 3.4898401079699397 3.6914444169960916 3.8860968532972029 0.75080225430429148 0.84117659972980618 3.3855620170943439 0.93850281788036216 12.805349559523163 0.87593596335500379 3.7192519078962487 1.786631290335208 1.3556151813827457 0.89679158153012373 2.0438505811616778 0.81336910882964719 0.74385038157924999 0.90374345425516356 0.7786097452044487 1.6475938358344135 1.0219252905808387 1.5780751085840163 1.6406419631093738 0.69518727250397205 0.70909101795405149 1.2304814723320303 4.553476634901017 0.917647199705243 0.70213914522901177 1.2165777268819504 1.7518719267100085 0.72299476340413071 0.93850281788036227 0.98021405423060137 1.3000001995824284 10.497327814809976 7.139573288615793 0.79251349065452803
leaf_count=132 285 117 331 109 171 148 269 194 212 478 272 100 122 104 126 159 191 187 109 108 178 414 278 202 180 145 153 129 150 100 102 137 210 128 132 222 178 301 164 112 118 107 107 101 1897 1085 246 142 133 173 101 135 142 144 775 105 174 136 117 141 196 349 150 122 187 144 130 403 315 1550 524 115 139 429 133 350 144 211 123 166 146 991 100 156 123 108 451 102 187 189 185 1513 105 190 502 531 559 108 121 487 135 1842 126 535 257 195 129 294 117 107 130 112 237 147 227 236 100 102 177 655 132 101 175 252 104 135 141 187 1510 1027 114
internal_value=-4.95469 -4.8496 -4.78863 -4.95942 -4.95605 -4.94681 -4.96503 -4.91263 -4.86269 -4.97745 -4.96866 -4.96075 -4.93623 -4.87098 -4.96944 -4.92976 -4.90011 -4.86873 -4.95191 -4.92517 -4.88373 -4.95601 -4.93981 -4.90666 -4.96538 -4.9506 -4.95513 -4.92624 -4.93082 -4.89922 -4.94775 -4.93252 -4.89492 -4.91003 -4.85858 -4.84251 -4.90968 -4.95125 -4.97201 -4.94035 -4.94863 -4.90863 -4.90542 -4.98205 -4.97498 -4.96144 -4.93953 -4.90247 -4.87952 -4.98631 -4.9809 -4.92981 -4.98419 -4.9318 -4.96393 -4.97416 -4.93676 -4.94679 -4.94944 -4.83525 -4.81335 -4.96504 -4.93927 -4.87896 -4.98953 -4.89215 -4.87601 -4.96439 -4.94508 -4.98533 -4.97456 -4.96448 -4.93313 -4.95829 -4.93131 -4.97095 -4.95289 -4.92898 -4.89994 -4.9749 -4.90654 -4.98399 -4.96017 -4.90997 -4.97049 -4.95275 -4.97401 -4.94813 -4.97512 -4.96888 -4.8552 -4.98482 -4.99061 -4.95864 -4.98529 -4.98621 -4.97826 -4.96709 -4.92863 -4.97865 -4.95804 -4.9883 -4.9788 -4.9614 -4.97314 -4.95269 -4.92939 -4.97789 -4.94141 -4.97847 -4.98545 -4.9052 -4.97462 -4.98695 -4.9745 -4.97529 -4.96603 -4.90381 -4.98607 -4.98995 -4.86984 -4.92863 -4.98767 -4.98011 -4.92806 -4.91206 -4.99396 -4.99699 -4.9935 -4.99481 -4.97046
internal_weight=0 8.60642 4.95669 242.287 205.164 101.171 103.993 6.00642 2.82246 37.123 97.9866 66.738 17.1503 1.57112 49.5877 5.62407 3.73316 2.62781 97.7989 12.1241 6.38182 85.6749 31.1791 9.13476 54.4957 29.3091 22.0444 7.86257 17.1711 5.58235 15.5791 11.3941 5.77701 2.65562 5.10267 4.18503 2.64171 3.64973 14.1818 4.40054 4.31711 1.56417 1.98128 25.1866 43.9636 20.807 11.9642 4.33102 3.34385 23.1567 36.3652 1.64064 11.1021 3.07968 9.96899 8.76631 2.64866 3.28824 11.5888 3.37166 2.34278 4.02513 2.02995 1.73797 8.84278 3.83743 2.83636 7.63316 4.83155 24.4845 5.61711 3.95562 1.76578 10.7754 3.05187 13.7091 6.6738 4.24064 2.7738 4.03209 2.01604 34.7246 5.70054 2.12727 7.72353 4.74118 3.8861 1.63369 5.74225 3.18396 2.29412 31.2487 6.11765 3.323 4.18503 4.44225 12.138 8.25187 1.59893 6.65294 3.26738 29.0241 16.2187 9.32941 8.45348 4.73423 2.94759 2.75294 2.13422 2.83636 4.22674 1.4738 2.34278 4.66471 2.32888 2.41925 1.59198 1.43904 7.0353 5.80481 1.91872 1.59893 27.9257 15.1273 2.87808 1.6615 12.7984 11.8182 12.2492 9.07219 1.93262
internal_count=36090 1238 713 34852 29512 14553 14959 864 406 5340 14095 9600 2467 226 7133 809 537 378 14068 1744 918 12324 4485 1314 7839 4216 3171 1131 2470 803 2241 1639 831 382 734 602 380 525 2040 633 621 225 285 3623 6324 2993 1721 623 481 3331 5231 236 1597 443 1434 1261 381 473 1667 485 337 579 292 250 1272 552 408 1098 695 3522 808 569 254 1550 439 1972 960 610 399 580 290 4995 820 306 1111 682 559 235 826 458 330 4495 880 478 602 639 1746 1187 230 957 470 4175 2333 1342 1216 681 424 396 307 408 608 212 337 671 335 348 229 207 1012 835 276 230 4017 2176 414 239 1841 1700 1762 1305 278
is_linear=0
shrinkage=1


Tree=1
num_leaves=139
num_cat=0
split_feature=9 6 3 9 6 11 16 16 16 9 11 0 11 9 0 16 16 8 9 9 3 9 8 16 8 11 11 2 2 16 0 11 6 3 6 16 0 3 2 2 11 2 16 3 2 0 16 16 11 2 11 0 8 11 8 16 16 8 0 11 0 16 3 0 8 16 11 16 0 3 11 2 6 11 3 0 6 8 16 6 16 11 16 9 8 2 3 0 11 0 2 3 16 16 16 2 11 6 6 8 11 16 16 11 16 11 2 9 16 16 8 11 11 16 8 0 0 0 0 6 0 3 16 11 0 16 16 16 16 16 16 16 8 11 16 11 11 16
split_gain=9.50316 10.9955 11.5865 9.57701 7.19706 7.70153 7.12281 8.23835 8.34096 8.80239 10.2801 7.73792 8.64268 6.53997 5.61423 5.48081 5.4732 9.6283 10.9132 7.40009 7.37585 10.7927 7.02959 4.90965 7.20181 6.47839 11.8629 21.163 4.9009 4.08827 3.67261 3.55472 3.31128 6.42407 10.5205 11.0894 5.049 4.6068 3.91384 3.59886 3.33358 3.76155 3.25227 6.5354 3.17417 3.30169 3.09715 3.07892 4.80272 3.0376 4.42887 2.71092 4.17536 2.69644 6.51164 2.61442 2.55631 6.26157 4.52453 5.75873 3.79915 3.35158 2.4773 2.48205 2.35163 2.17478 1.99799 3.13662 1.98616 1.83682 1.75145 2.30414 1.92949 1.6877 1.65263 4.22617 1.62191 1.48221 1.47521 1.44764 1.46004 2.62401 1.63477 1.45788 1.39653 2.76344 1.38986 1.66833 1.38012 1.28604 1.52879 3.96066 1.21311 1.18995 3.48519 1.07066 1.05846 3.68563 0.974405 1.35441 0.92547 3.0104 2.3358 0.910006 0.901174 1.20509 0.759548 0.755904 0.6704 0.606465 0.636922 0.59424 0.573788 0.555121 0.52107 0.50253 0.470273 0.464923 1.11694 0.452596 0.443915 0.430194 0.408753 0.408624 0.390429 0.340349 0.331244 0.321076 0.307889 0.288049 0.257003 0.242256 0.218132 0.17303 0.132372 0.103814 5.53665 0.0531792
threshold=2534073958400.0005 16769336320.000002 2976967936.0000005 2229993603072.0005 36896323584.000008 34.500000000000007 449699696.00000006 302185760.00000006 179234920.00000003 1796207542272.0002 6.5000000000000009 11010000.000000002 10.500000000000002 3478009020416.0005 65043750.000000007 600647328.00000012 306739040.00000006 4817000.0000000009 285655498752.00006 857518997504.00012 3150000000.0000005 319609012224.00006 4.5000000000000009 311186768.00000006 950000.00000000012 2.5000000000000004 3.5000000000000004 1.5000000000000002 2.5000000000000004 302185760.00000006 3005000.0000000005 5.5000000000000009 22807797760.000004 1372000000.0000002 15040192512.000002 429891216.00000006 1005000.0000000001 2639340032.0000005 2.5000000000000004 3.5000000000000004 18.500000000000004 4.5000000000000009 350216096.00000006 1192747520.0000002 2.5000000000000004 15025000.000000002 171292392.00000003 529973680.00000006 19.500000000000004 1.5000000000000002 6.5000000000000009 4525000.0000000009 363584.50000000006 3.5000000000000004 186075.50000000003 505581696.00000006 592893824.00000012 797000.00000000012 29550000.000000004 16.500000000000004 20005000.000000004 623574400.00000012 7144950016.000001 69177248.000000015 950000.00000000012 231818368.00000003 6.5000000000000009 354711184.00000006 10012458.500000002 4519749888.000001 3.5000000000000004 2.5000000000000004 18635549696.000004 5.5000000000000009 2639340032.0000005 225000.00000000003 12074189312.000002 7100000.0000000009 386486432.00000006 10564976640.000002 435417408.00000006 22.500000000000004 356994176.00000006 756322992128.00012 56.000000000000007 2.5000000000000004 7882200064.000001 5025000.0000000009 8.5000000000000018 5025000.0000000009 2.5000000000000004 2320342144.0000005 341578176.00000006 345908672.00000006 509851984.00000006 2.5000000000000004 3.5000000000000004 12074189312.000002 22807797760.000004 1234062.0000000002 15.500000000000002 470250032.00000006 426817088.00000006 207.50000000000003 569849760.00000012 32.500000000000007 1.5000000000000002 146291654656.00003 609855008.00000012 176860728.00000003 10722500.000000002 8.5000000000000018 18.500000000000004 516291040.00000006 3675000.0000000005 225000.00000000003 3505000.0000000005 21005500.000000004 16575000.000000002 18635549696.000004 9999999.5000000019 1269247552.0000002 334247328.00000006 85.500000000000014 29550000.000000004 418183648.00000006 702137344.00000012 249455464.00000003 512047104.00000006 244135984.00000003 753039328.00000012 600647328.00000012 13259500.000000002 3.5000000000000004 505581696.00000006 7.5000000000000009 9.5000000000000018 241894944.00000003
decision_type=2 2 2 2 2 2 2 2 2 2 2 8 2 2 8 2 2 2 2 2 2 2 2 2 2 2 2 2 2 2 8 2 2 2 2 2 10 2 2 2 2 2 2 2 2 8 2 2 2 2 2 10 2 2 2 2 2 2 10 2 10 2 2 10 2 2 2 2 8 2 2 2 2 2 2 10 2 2 2 2 2 2 2 2 2 2 2 8 2 10 2 2 2 2 2 2 2 2 2 2 2 2 2 2 2 2 2 2 2 2 2 2 2 2 2 10 8 8 10 2 10 2 2 2 10 2 2 2 2 2 2 2 2 2 2 2 2 2
left_child=1 3 74 16 5 6 7 8 114 10 28 128 -13 135 93 -14 17 31 132 -20 22 -22 -18 24 25 29 27 -27 -10 84 -24 46 33 39 35 68 37 113 55 42 41 78 43 -25 45 -37 116 48 -23 50 65 53 -53 64 -55 -39 58 60 77 -60 -58 -59 104 73 -48 -28 -9 122 -35 126 -26 72 127 -64 75 88 92 96 -41 80 82 95 83 -79 106 -86 87 -6 -3 90 119 -92 -16 -5 -95 -82 97 121 99 -7 -76 102 -102 117 -34 -106 115 -98 -107 -89 131 -33 -69 -36 -4 -15 -1 118 -44 -51 -45 -32 -68 -46 -77 -43 -38 -72 -8 -74 -128 -111 -19 -21 -47 -2 -137 -66
right_child=13 2 4 14 86 98 11 66 9 -11 -12 12 15 23 76 -17 20 18 19 133 21 47 30 32 70 26 49 -29 -30 -31 56 111 62 34 36 44 69 38 -40 40 -42 125 103 120 123 134 51 -49 -50 89 -52 52 -54 54 -56 -57 57 61 59 -61 -62 -63 63 -65 137 -67 67 112 -70 -71 71 -73 129 -75 100 124 -78 79 -80 -81 81 -83 -84 -85 85 -87 -88 109 -90 -91 91 -93 -94 94 -96 -97 107 -99 -100 -101 101 -103 -104 -105 105 108 -108 -109 -110 110 -112 -113 -114 -115 -116 -117 -118 -119 -120 -121 -122 -123 -124 -125 -126 -127 130 -129 -130 -131 -132 -133 -134 -135 -136 136 -138 -139
leaf_value=0.0083737044609767369 -0.044350505556068148 0.058357019991965048 -0.030955853854309615 0.16124529009740807 0.022804340958251765 0.034797597544646619 0.0082611584881484481 -0.038846101336459798 0.17068550623052406 -0.026107859518010514 -0.023405731537825006 -0.021197795320193918 0.15708819270220101 0.012910831743403321 -0.0018546555418088096 0.0054968057275765741 0.088810709613963867 -0.022422857017195222 0.1695262925157473 0.002399088531648089 0.14567809628796713 -0.024270712820076128 0.057335929875982662 0.087687618883594942 -0.040912519597511153 -0.029206816892010636 0.035304553094768626 0.17872411536070237 0.030674548673699488 0.064875810690510113 0.00074321108453661623 -0.034877356597749154 -0.04540080339427352 0.030212522952080819 -0.031658276338553663 0.0080970411980178583 -0.043454266314896864 0.10741624059505275 -0.020979210146330241 0.006583618635710645 -0.030617292244661115 -0.023693335851825228 -0.031828242880191003 -0.034148074696685855 -0.0011916130788593821 0.033747664340367738 -0.034266148387993904 -0.031848740903130383 0.094561302535338093 -0.028444183921864603 0.091497453439572163 -0.00057729164773371775 0.12281598187764149 0.11228106336265996 -0.024782985328016725 0.0031414647780208475 0.1093673196992902 0.03594441544776527 0.081884106886686292 -0.028392832559798433 -0.0023334627064977194 -0.038468600609643896 0.022838590895331311 0.0493527973488668 0.0063239564953770123 -0.03034302298152149 0.006678854399500527 -0.032891302892158879 -0.034580546173560558 0.015262006031500032 -0.023002200676908072 -0.032884993591059203 0.065166327605041693 -0.035293019145467959 -0.046065608984643347 -0.039411849549483541 -0.021276633936315147 0.042703809602431225 0.098977883728315175 -0.031871137637882893 0.0785418482063341 -0.022467777806635836 -0.033124613286892826 -0.020460213861558621 -0.027617841477234419 0.053276882942254106 0.023693314947288061 0.0070727175951484662 -0.0043306609904672716 -0.032755252276140449 0.076815373646295898 -0.025189645766752602 0.060866192685249079 -0.021024606231452806 0.084107174653013858 0.004420928151197919 0.0070000318082101831 0.053447488425762316 -0.037783949534757284 -0.024506830590513839 -0.020353324924720306 -0.038019833782592889 0.065964324946393899 0.0084940308793979274 0.019257123532606057 0.007640709006051182 -0.039712545403137359 -0.036393156956035115 -0.036044218393665332 -0.038355616763641555 0.0053491114233740478 0.0065712298283546501 0.0078679470614224853 0.0084728420105643666 0.0080546893086747354 -0.021641134333831219 -0.028826548672989699 -0.045975560534569575 0.011345016445633245 0.0081173535880307325 0.0027080653340977633 -0.035940551171199035 0.06245529569927806 0.037154826033421955 -0.003390793121833414 0.0082996733477070164 0.0079832074265321594 0.0081329098752187488 -0.022255261503495563 0.0086537656257785357 -0.020044104836014612 -0.0076672038682160841 0.0040598181872380998 0.032377646435242706 0.1544719337141659 0.054739208690789812 -0.042664871174083796 0.036173837373114227
leaf_weight=0.69912562565878245 7.9003013735637051 1.2666031387634604 1.703498017974207 1.0767767759971314 1.0340379476547195 0.7381424349732687 0.70262813987210282 3.6062908279709509 2.3424307866953318 1.1495702737011013 0.92735964851453889 0.77634592400863756 3.0480395290069286 1.3629769501276316 1.0717230355367071 0.79021746106445778 1.1151075898669649 0.85708027472719439 2.3604028839617968 0.89923418313264825 1.2471287352964271 0.99356235237792156 1.2886263695545483 0.77068626368418991 4.6301245684735459 1.4743037419393652 1.3111242000013574 2.4410151457414031 1.4470997015014289 0.70071656024083573 0.96291559096426782 2.4055523886345322 9.7997741764411348 0.84088183194399091 1.8086958075873547 0.7075632433407012 6.7293814886361325 1.4916026219725615 0.76271535782143463 0.75476620718836718 1.6568536264821885 0.94896113453432895 4.5327970404177966 2.2496345769613986 1.0429705716669557 0.76064135413616929 2.2743629650212829 1.8381437314674256 0.68350038025528193 1.3861048147082331 1.426225898787379 1.016883759293705 0.97518057515844692 0.80012010689824808 1.0346737187355755 0.87197608500719059 1.1472369655966752 1.2935332423076031 1.6074911793693893 1.3806266444735227 1.0932781011797486 3.4566049515269697 1.0327594433911138 0.9758640257641672 0.76301205018535234 1.6190424896776674 0.75160004245117285 2.0108729717321698 2.3419364262372255 1.2757910885848112 0.89804081153124593 2.0099108624272048 0.69621345587074734 2.5011993320658803 11.488651343155654 3.8441661652177572 0.78107096720486868 1.1219340041279777 0.966521090362221 1.8413158310577271 0.90108085796237014 0.86041410826146592 2.0524207223206758 0.73081830563023675 1.2975089475512507 0.89867649786174286 1.0089019453153021 0.73915078910067755 1.1869462467730043 1.9871477894484995 0.92774523003026832 1.0689587439410386 1.2138761663809416 0.76503213495016076 0.81954555911943316 0.8265995541587472 0.74133424879982968 0.89533286867663253 3.2111359345726669 1.0126291760243473 0.72447836538776644 3.294013730250299 0.68417439656332135 0.69562309142202039 1.141230922192334 0.72158018639311228 3.9879256207495928 13.52682097442448 2.6905482285656035 7.5817954703234101 0.79510889854282218 0.75510570919141162 0.71445402828976501 0.69624609453603614 0.70870952401310194 0.80499739618971933 1.4295688765123484 11.224889028351752 1.4245836418122051 0.70690883789211501 0.88790957117453206 2.6619408293627203 0.73860111786052585 0.68950059451162804 1.141920570284128 0.70133311906829476 0.7110573463141916 0.70643490832298994 0.84583782963454723 0.69079076312482357 0.70624117041006684 1.3633525664918122 0.83913900423794985 0.79087427677586675 1.8801036342047153 0.8713110820390283 5.927984531968832 0.70933722890913486
leaf_count=100 1166 181 243 152 147 108 103 529 335 165 134 113 439 201 153 115 160 123 337 129 181 144 180 112 679 210 189 347 210 103 137 344 1435 122 266 103 982 218 112 110 243 138 650 324 151 110 329 269 100 200 204 146 137 115 148 126 165 188 228 201 160 502 139 137 109 234 107 289 345 186 131 290 100 356 1684 548 111 160 140 267 129 126 294 106 192 133 146 106 172 286 130 156 171 107 115 118 104 128 471 149 106 488 101 102 165 106 588 1943 394 1098 115 109 102 102 100 119 205 1639 208 102 130 381 106 101 167 100 104 102 124 100 104 200 119 113 274 129 865 101
internal_value=0 0.0120572 -0.00296593 0.0257687 0.0134419 0.0275389 0.0398168 0.0197627 0.0516919 0.0799821 0.105884 0.081553 0.108698 -0.00744645 0.0826305 0.133867 0.0192956 0.0413116 0.0896074 0.126224 0.00928533 0.0617882 0.00149685 -0.00278472 0.0128087 0.027452 0.0471892 0.110946 0.135714 -0.00550889 -0.0033736 0.0145209 -0.0103319 -0.00340046 0.0154201 0.0572208 -0.00979575 0.0248522 0.0578447 -0.0197302 0.0158821 0.0406008 -0.0283078 0.0106944 0.0966404 0.12034 0.0289178 0.00502193 0.0421034 0.0151852 0.0425218 0.0426599 0.0816044 0.0178894 0.0543028 0.0818943 -0.00702693 0.0183684 -0.0133499 0.0368701 0.0716987 -0.0153271 -0.0275844 0.0040998 -0.00803001 0.000614859 -0.0161807 0.0071405 -0.0141733 -0.0309247 -0.0219588 -0.000301547 0.0244817 -0.0169472 -0.0299525 -0.00877149 0.0231146 -0.0200694 0.0764935 -0.00209257 0.0096596 0.0327379 -0.00937989 0.019417 -0.0180977 0.0120832 -0.0169626 -0.0222335 0.0359123 -0.00783744 0.00854396 0.0324554 0.0402291 0.124958 0.045318 0.0583122 -0.0275027 -0.00494237 -0.0248465 0.00420626 -0.0385401 -0.0150336 0.031935 -0.0369562 -0.0371344 -0.0140993 -0.0290596 -0.0338082 -0.0271865 -0.0283752 -0.0314982 -0.0258158 -0.0229989 -0.021305 -0.0205394 -0.00282592 -0.0178925 -0.0391855 -0.021349 -0.0175246 -0.0256782 -0.0282436 0.0488537 0.0224169 -0.0332153 -0.0121773 -0.039088 -0.011521 -0.0106874 0.0530264 -0.00859383 -0.0349946 -0.0128138 0.0235313 0.139425 -0.0374234 -0.024448 0.0298653
internal_weight=0 131.984 63.3788 68.6054 39.7478 27.2255 22.2636 16.1005 8.27867 5.86646 4.71689 6.16307 4.6146 116.727 5.72802 3.83826 62.8774 18.6097 5.74673 4.05051 44.2678 4.76234 39.5054 102.028 33.0329 23.4014 14.3486 3.91532 3.78953 9.0528 38.3903 12.8629 68.9948 50.1319 23.3173 8.2636 15.0537 5.63124 3.12629 26.8146 5.02844 3.37158 21.7861 3.90823 5.08078 3.34831 9.70226 3.51521 1.67706 10.4333 4.35639 7.57357 1.99206 5.58151 1.83479 2.36358 37.1017 6.99065 30.111 2.98812 2.24052 4.75014 18.863 4.50982 3.74671 2.93017 7.82182 4.21553 3.18282 9.42247 9.63152 5.00139 2.99148 3.53396 23.631 7.43964 3.06667 27.1229 1.72129 8.33458 6.49327 2.58809 3.90517 1.85275 8.35209 2.19619 12.5223 11.5134 2.45355 6.07687 4.08972 1.9967 2.2856 2.66135 1.58458 1.72768 18.7883 4.52019 4.96191 1.75077 16.1913 4.70267 1.40865 17.8779 14.3531 4.55336 6.1559 14.2682 3.41213 10.4794 9.74026 3.16066 2.72533 2.50494 2.41221 2.16797 2.12869 17.1823 5.95738 2.09301 3.13754 3.62486 1.4902 1.73247 4.98609 1.65029 8.14668 1.60448 1.54847 1.387 1.4173 8.94515 1.69622 1.69011 2.64074 14.6996 6.7993 1.47235
internal_count=36035 19045 9201 9844 5754 3942 3214 2320 1187 844 679 894 667 16990 809 554 9035 2664 821 579 6371 694 5677 14830 4796 3394 2058 557 545 1336 5517 1843 10034 7302 3406 1206 2200 824 456 3896 731 488 3165 566 739 487 1390 513 244 1501 627 1085 283 802 263 344 5337 1015 4322 429 325 690 2732 632 539 423 1133 604 467 1376 1402 723 433 495 3447 1068 435 3893 250 1200 933 373 560 266 1233 325 1812 1666 353 874 588 286 324 374 222 247 2693 646 728 257 2379 695 207 2599 2100 665 908 2047 500 1519 1413 453 391 368 343 320 305 2497 858 302 454 518 213 252 715 238 1190 233 227 200 208 1298 242 242 384 2160 994 210
is_linear=0
shrinkage=0.05


Tree=2
num_leaves=138
num_cat=0
split_feature=14 6 12 6 16 14 6 12 4 7 14 7 16 5 4 5 16 16 14 14 4 16 5 16 8 6 6 8 8 8 12 4 7 16 5 7 12 5 4 16 7 6 8 14 7 14 14 8 6 7 8 8 12 4 16 7 8 6 12 8 16 8 7 14 16 16 16 5 16 16 7 7 16 8 8 6 6 16 16 7 7 12 7 16 12 5 8 5 8 6 16 16 7 7 8 8 16 16 16 16 4 4 12 12 4 16 12 8 16 12 12 16 8 7 6 8 5 8 16 16 16 6 16 4 8 16 16 16 12 12 7 6 16 16 16 4 4
split_gain=19.533 20.0178 9.0533 9.70209 9.00629 10.3723 17.2409 9.98142 9.93476 11.7851 5.75948 6.07139 5.36529 6.61918 5.16265 4.83453 4.60155 5.11249 5.07557 4.27699 4.49571 6.83017 4.96475 4.80422 4.97215 4.66294 4.70691 6.03062 5.77432 4.54284 4.38564 4.07125 7.187 5.85609 3.89338 3.76476 4.34828 7.34231 5.15691 9.69612 5.06302 4.12635 4.82345 3.69094 3.63641 3.58937 10.3119 5.36707 3.12266 3.41854 3.06953 2.94476 2.82412 2.73098 3.20039 2.65964 2.63648 2.55017 2.48938 3.03706 2.39142 2.33864 2.24049 3.73603 2.52362 2.48271 2.60257 2.21525 2.17439 1.98583 5.01843 2.66639 1.92438 1.85755 1.84819 2.16924 1.86505 1.65201 1.811 1.57493 4.60843 2.05663 1.56885 1.53339 1.52843 2.90596 1.50623 1.39744 1.18136 1.15439 1.06432 1.01378 2.44599 2.13361 3.18276 0.982877 0.944831 3.72466 1.37911 2.71847 6.41187 3.21893 1.22226 2.02426 1.87567 0.902364 1.42421 0.803182 0.800496 0.798885 2.54572 0.791173 0.746263 0.618587 0.590491 0.786027 0.563549 0.54039 0.519947 0.512524 0.453157 0.443863 0.442845 0.426782 0.641002 0.367963 0.326476 0.296284 0.281854 0.325261 0.281699 0.163795 0.139357 0.258267 0.0467012 0.0278137 0.342117
threshold=0.90959277749061596 16769336320.000002 37.500000000000007 41358848000.000008 505581696.00000006 1.0610433220863345 15040192512.000002 16.500000000000004 6172000.0000000009 2110500032.0000002 0.96672365069389354 2800000000.0000005 603527168.00000012 2385104994304.0005 1906792.5000000002 1164650479616.0002 650030144.00000012 513864800.00000006 1.0286006927490237 1.0270575284957888 249.00000000000003 275274528.00000006 16958862393344.002 296380544.00000006 1090000.0000000002 13981730304.000002 20409752576.000004 6614500.0000000009 29.500000000000004 5792000.0000000009 2.5000000000000004 1.0000000180025095e-35 2188126592.0000005 435417408.00000006 2863728427008.0005 1911750016.0000002 2.5000000000000004 2506454073344.0005 41.500000000000007 212089088.00000003 2800000000.0000005 25188173824.000004 4817000.0000000009 0.96437636017799389 1702000000.0000002 0.83484846353530895 0.74772727489471447 48901.500000000007 15040192512.000002 1911750016.0000002 7100000.0000000009 950000.00000000012 11.500000000000002 1292636.0000000002 326331408.00000006 3600000000.0000005 6614500.0000000009 15719972864.000002 3.5000000000000004 7100000.0000000009 353154240.00000006 9.0000000000000018 2450000000.0000005 0.95480081439018261 278162352.00000006 379074320.00000006 336478032.00000006 1614838497280.0002 207187560.00000003 286678176.00000006 1953000000.0000002 2105000000.0000002 299570672.00000006 29.500000000000004 950000.00000000012 20409752576.000004 13981730304.000002 379872496.00000006 402589312.00000006 2105000000.0000002 2800000000.0000005 11.500000000000002 3600000000.0000005 378319504.00000006 12.500000000000002 2565427036160.0005 6614500.0000000009 10258036031488.002 950000.00000000012 15719972864.000002 220857792.00000003 279946944.00000006 2350000000.0000005 3600000000.0000005 126.50000000000001 10250000.000000002 562567424.00000012 572333088.00000012 710747744.00000012 674177440.00000012 35.000000000000007 165319.00000000003 48.500000000000007 63.500000000000007 1592636.0000000002 443862912.00000006 12.500000000000002 7852738.0000000009 304272256.00000006 7.5000000000000009 1.5000000000000002 193732192.00000003 177.50000000000003 1702000000.0000002 18635549696.000004 7245109.0000000009 1164650479616.0002 17.500000000000004 463818000.00000006 212089088.00000003 580271936.00000012 11139666432.000002 235280664.00000003 70.000000000000014 1234062.0000000002 547973344.00000012 398727088.00000006 351484896.00000006 188.50000000000003 287.50000000000006 2098000000.0000002 25188173824.000004 470250032.00000006 486860416.00000006 217919384.00000003 17.500000000000004 5.5000000000000009
decision_type=8 2 2 2 2 10 2 2 2 2 8 2 2 2 2 2 2 2 8 10 2 2 2 2 2 2 2 2 2 2 2 2 2 2 2 2 2 2 2 2 2 2 2 10 2 10 10 2 2 2 2 2 2 2 2 2 2 2 2 2 2 2 2 10 2 2 2 2 2 2 2 2 2 2 2 2 2 2 2 2 2 2 2 2 2 2 2 2 2 2 2 2 2 2 2 2 2 2 2 2 2 2 2 2 2 2 2 2 2 2 2 2 2 2 2 2 2 2 2 2 2 2 2 2 2 2 2 2 2 2 2 2 2 2 2 2 2
left_child=1 14 3 4 19 8 125 -8 9 15 11 120 84 -14 45 -6 17 -17 43 20 21 35 48 29 61 31 27 30 109 -24 83 32 105 72 -15 57 74 40 56 -40 41 42 73 89 -30 46 47 -1 62 53 -33 -16 -45 54 -50 -42 -39 -2 -21 132 -47 -25 63 -22 121 66 108 -61 -59 70 -65 -72 -34 -38 76 111 -37 117 -79 -32 88 -82 114 -27 85 -11 116 -36 -81 -19 -73 92 -51 94 -94 113 -12 -98 99 101 -101 128 -103 -104 -105 112 -107 -93 -66 110 -28 -76 -23 -5 -3 -116 -71 -74 -67 -78 -4 -64 -96 124 -46 -7 -56 -26 -99 -130 -75 -54 -60 -134 -95 136 -100
right_child=2 82 10 95 5 6 7 -9 -10 12 96 -13 13 34 51 16 -18 18 -20 58 22 25 23 24 127 26 28 -29 44 -31 79 50 33 -35 87 36 37 38 39 -41 55 -43 -44 52 123 60 -48 -49 49 91 -52 -53 131 -55 126 -57 -58 68 59 67 -62 -63 64 69 65 118 -68 -69 -70 86 71 90 77 130 75 -77 119 78 -80 80 81 -83 -84 -85 -86 -87 -88 -89 -90 -91 -92 107 93 134 122 -97 97 98 135 100 -102 102 103 104 -106 106 -108 -109 -110 -111 -112 -113 -114 -115 115 -117 -118 -119 -120 -121 -122 -123 -124 -125 -126 -127 -128 -129 129 -131 -132 -133 133 -135 -136 -137 -138
leaf_value=0.16232453040607009 -0.03546469165982416 0.0087134971288414503 0.0084119287483141788 -0.0031889697177894544 -0.027367523921121822 0.0079592373547514583 0.023235707403503558 0.24647098475747609 0.12720685418085806 -0.032178154203653435 -0.043976597042636886 0.097487950511613242 -0.033205867141939231 0.11000999204316093 -0.026060002915702735 -0.023097218031999794 -0.024205854919170443 0.036374611619730955 -0.020788403639040116 0.034844655415793513 0.081815090777580299 0.0061296002571973908 -0.037454423137378623 0.0066435807168779577 0.0088432561730558343 -0.028440191809609706 0.051358452467246796 -0.030820965816585617 0.037476328082752856 0.055886833737802989 0.1095654074710182 -0.044867599561453073 -0.0064048206331543643 -0.033778762377847202 -0.024201598942752329 -0.035466107690100522 0.032986614717425235 -0.038535348987347617 0.11938591720485447 -0.028879278632699054 0.17286701583321432 0.10532236815713523 0.081399804279251892 0.0060225849366264085 -0.028797969619645397 0.04172464677281984 -0.029884425063045741 0.0042613991458435412 0.075570251689065254 -0.040511273072182913 0.029662533142564475 0.061253868594303387 0.12970330477518502 -0.02873649538786309 -0.022409336923383229 0.04303571866867284 0.035113842933351 -0.020177511342563872 -0.044563426488872723 0.053228287944630949 0.18729802261275988 0.11660591523870999 -0.040388835295334533 -0.031489258014235716 0.016712145945164097 -0.032754793944683995 0.064892810620447119 -0.023516202090679166 0.062558208785642888 -0.03710365055234402 0.088697569319927436 -0.022669554854422767 0.022659321639399106 -0.0026627986552076712 0.0050297744835593053 -0.020764866767836596 -0.0037003872720920081 -0.025045701336670435 0.039994872514751756 -0.028683657233804439 0.01641545839128054 0.11866701924013111 0.028529493937235813 0.031689185655183742 -0.040544632660086427 0.04414279883299415 0.022914106630010925 0.036619022295571978 0.02252723048976105 -0.020997728930048545 0.030063455857360529 -0.042377861182334622 0.062995611280680888 -0.0073220836436207297 -0.026796661581597988 0.0088605668006608608 0.043570219558868611 -0.04422574550877649 -0.027241254472145173 0.079285785196735126 -0.032398365907719232 -0.023652525191790594 0.065094970918040895 0.036605443426465517 -0.030024717176489503 0.035192865769751468 -0.025241402340085622 0.0035390412119336353 -0.025802843503360332 0.063244657298661952 -0.026747352451574946 0.070928488695567574 -0.038102510512350328 -0.04531937659193 -0.038401534542133138 0.0084572869107392284 0.0035631215325074616 0.078865401848768807 0.0063197954017275744 0.036109194375826374 -0.028152599056405256 -0.0027920367718748725 0.0093392665263543981 -0.042073868731095553 0.0079958434329020448 -0.025252676261985681 0.0089331989354182063 -0.021102964798836527 0.0088617993032852251 -0.022428222921745705 -0.034558510521002013 0.044203690328634325 0.0042683742880539463 -0.024358233215241058 -0.028973377189829948 -0.044186732486797733 0.0051891051221316349
leaf_weight=0.83063362725078904 2.5416748626157672 0.68905177060514589 0.69806053768843401 1.1325639970600576 1.2710950481705428 0.71167834894731585 1.0217479518614707 0.7980048875324427 0.92466195765882631 1.8907059505581885 7.3816607710905364 0.98701638355851162 2.0678097638301542 1.1382949217222633 1.1436999151483176 0.90455012954771241 0.98859310848638493 0.70526441698893616 0.7506680325604983 0.73714109882712264 0.85232623200863677 0.76920644985512421 3.0973261515609916 0.75301190512254912 0.68522567534819223 1.3858735514804741 0.93557996815070499 1.6838372680358578 1.2523040724918235 0.85009991191327561 2.0824276152998209 8.7521803332492674 1.2932272315956632 2.1761677432805291 0.98853829875588395 2.5459154751151827 0.77717044111341049 3.4798264396376899 1.3109859186224642 1.435348800383508 1.1890554698184133 0.88350243726745237 0.85808754013851274 0.77284952625632275 1.4263488426804527 1.144871265627444 1.5559492004103956 0.83140351064503193 1.344671495258811 4.4015472410246748 0.85402842378243882 0.75782482745125879 3.9516505845822394 1.4203854147344825 0.85666163731366374 1.6490122899413109 0.73119006911292661 0.71361493738368131 8.2191573525778931 0.89940347941592225 2.1038617715239525 1.6502748979255555 4.3277924484573287 1.7816791026853023 1.225044094957412 1.9884325694292786 1.5682210763916371 0.93560052057728171 0.73687406629323959 2.9897951856255536 1.4763081250712278 0.87408705567941047 1.7233857479877768 1.1080526099540295 0.80565148871392045 0.74896585941314686 1.1565918959677217 1.0571209839545193 1.1877816217020152 1.4136521532200279 1.2353949015960095 0.72954986989498127 0.88162130350247014 0.80658381991088379 9.5121198273263854 1.088705603033304 1.0307383234612641 0.70027231611311436 1.0421015606261788 0.76372809614986181 0.84428118448704481 11.961274768691506 1.6122961966320875 1.3434943179599943 1.215050186961889 0.6846344945952304 1.1019411883316959 7.7227571504190617 1.2592990631237611 1.2755691749043756 1.9275598418898878 0.94617846468463485 0.69734444981440935 0.70045677991583977 1.5776390763930974 0.72967636352404852 1.0733708585612474 0.85774901881814081 1.1218035537749527 1.6062727477401493 1.2093739998526869 1.0245451903901992 7.4017698895186186 9.628014547750352 3.4307502484880388 0.69653020938858379 0.85675900569185603 3.6049200086854398 0.76326993061229575 0.71069415844976891 1.3541535907424984 1.1140082180500028 0.67070739157497872 5.4298085118643939 1.567236302886158 1.0737893809564409 0.68258316302672029 0.77039108797907829 0.68468721304088809 0.85788849974051118 2.3371165399439633 1.6159329954534767 0.83196909679099817 1.0005479105748234 1.4472837354987858 7.6647024601697922 0.80062440270557989
leaf_count=106 360 101 102 168 183 102 147 116 130 277 1113 143 301 160 153 129 145 102 108 108 122 108 436 114 101 202 132 237 181 116 298 1307 186 317 148 382 108 497 184 204 163 122 110 112 206 154 206 106 197 664 125 101 568 215 129 220 99 100 1192 126 287 246 627 254 177 296 231 136 103 432 205 125 257 160 113 105 170 158 177 208 183 105 129 119 1382 160 143 101 151 111 119 1788 236 193 181 99 165 1156 190 188 286 141 102 98 234 103 157 126 159 229 172 142 1068 1424 498 98 123 529 112 103 198 162 100 799 221 152 101 113 101 128 345 231 121 146 213 1141 119
internal_value=0 0.0589031 0.00029665 0.00461098 0.00744068 0.0304274 0.10025 0.176067 0.018893 0.0110741 -0.0218248 0.0357878 -0.0149249 0.0257495 0.103683 0.047657 0.0584706 0.0686847 0.0798691 0.00218446 0.0047664 0.0123129 -0.00574945 0.0289511 0.0620583 0.00197287 0.0181424 0.0417025 -0.00180035 -0.00973469 0.0575808 -0.0107851 0.00189292 0.028409 0.066153 0.0324733 0.0400595 0.0538583 0.0124127 0.0555032 0.0817316 0.0426142 0.0153134 0.0908813 -0.0220772 0.122658 0.0554928 0.115848 -0.0115873 -0.0225129 -0.0359374 0.0182502 0.105389 0.0155089 0.0391772 0.129815 -0.0212316 -0.0100909 -0.0245145 -0.030764 0.159006 0.0947933 0.00214324 0.0179089 -0.0121178 0.00831859 0.03068 0.0198414 0.0305562 0.00492358 0.024715 0.0560966 0.0456622 -0.0118343 0.00594523 0.0329317 -0.0131687 0.0542463 0.0111661 0.0756279 0.0414377 0.0827913 -0.0128451 -0.00318552 -0.0316361 -1.61098e-06 -0.0160817 0.00543281 -0.00671087 0.0102628 0.00483124 -0.0298456 -0.0160056 0.00453591 0.027135 -0.0380577 -0.0278055 -0.0219252 -0.0262916 -0.0157592 0.0207789 -0.0255259 0.0105338 0.0247801 -0.00439404 -0.0273723 0.0032081 -0.0392695 -0.00532354 0.0438043 0.0130663 0.0544606 -0.0337113 -0.0415732 -0.0242211 -0.0303805 -0.0292393 0.067503 -0.0231791 0.0190745 -0.0170924 -0.0344126 -0.0152139 -0.0341507 -0.0124969 -0.0139896 -0.0105437 -0.00922849 -0.0403 -0.0105954 -0.0273571 0.115993 -0.0410205 -0.0145744 -0.0234606 -0.040728 -0.0171677
internal_weight=0 14.0662 234.955 197.317 185.872 33.6407 3.60522 1.81975 30.0354 29.1108 37.6375 3.03923 17.3864 4.89492 8.36824 11.7243 10.4532 9.46464 8.56009 152.231 139.608 81.1731 58.4346 7.80633 3.8589 54.4292 23.8063 10.3794 13.4269 3.94743 8.69558 30.6228 21.0166 11.0426 2.82711 26.7439 22.7517 15.7593 6.95735 2.74633 8.802 5.96393 5.08043 7.80943 9.6757 6.46672 3.21799 1.66204 50.6283 27.8137 9.60621 1.90152 6.34043 4.3043 2.88392 2.83807 4.21102 3.99216 12.6238 11.8867 3.24873 2.40329 22.8145 10.706 12.1086 6.66677 3.91507 1.835 1.45049 9.85365 4.97636 3.19468 8.86644 4.22234 6.99236 2.57916 4.4132 7.57321 2.2449 6.50313 4.4207 1.96494 5.69795 2.19246 12.4915 2.97941 4.87729 1.68881 2.45575 1.46899 1.71837 23.5094 10.6904 6.28883 3.49805 11.4452 34.5983 27.2166 26.1147 16.3901 3.20313 13.187 3.92162 2.97544 2.2781 9.97402 1.80305 12.819 2.34685 3.75123 2.14495 1.8302 8.17098 10.7606 4.81633 4.12728 3.84655 5.32831 2.7517 1.86729 2.05221 5.4418 1.88576 8.42339 2.99359 1.78547 1.53924 1.45562 9.26533 1.54258 3.44517 5.56758 10.0517 1.83252 2.79078 9.72463 2.05992
internal_count=36210 1939 34271 28666 26975 4865 517 263 4348 4218 5605 443 2529 710 1113 1689 1506 1361 1232 22110 20281 11725 8556 1126 574 7935 3443 1503 1940 552 1266 4492 3060 1624 409 3790 3227 2212 984 388 1228 845 723 1124 1407 859 418 212 7430 4143 1432 254 911 642 427 383 596 563 1829 1721 441 360 3287 1523 1764 975 567 262 203 1401 703 449 1307 613 1015 360 655 1121 335 945 647 288 826 321 1819 437 698 249 359 213 244 3501 1587 923 517 1691 5162 4049 3884 2434 474 1960 575 434 332 1436 260 1914 336 533 304 255 1176 1592 697 596 555 786 408 273 300 789 281 1226 427 254 230 214 1385 229 505 799 1459 267 406 1450 309
is_linear=0
shrinkage=0.05


Tree=3
num_leaves=125
num_cat=0
split_feature=14 9 11 3 3 0 11 6 2 3 0 2 6 0 11 11 11 9 9 14 14 0 9 14 9 0 2 9 6 9 9 14 14 9 11 9 14 9 11 6 6 11 0 11 11 3 14 11 0 11 11 9 2 9 11 6 0 11 11 9 9 9 9 9 11 6 9 9 14 14 0 11 11 9 9 6 9 11 13 3 11 0 2 11 0 2 9 9 3 9 14 14 14 9 2 11 2 14 3 9 11 3 11 0 0 9 11 9 2 11 6 6 9 11 9 0 0 6 11 9 9 9 0 0
split_gain=64.3658 12.2985 10.4145 7.63338 10.0631 8.7731 12.5069 13.0993 7.98427 5.96417 6.77923 6.24599 5.5056 4.9705 7.03588 4.30503 11.5155 3.88865 4.30268 3.86728 3.71381 3.59157 4.15252 3.50186 3.49229 3.30387 6.83592 3.28573 4.96219 5.72251 3.52257 3.24709 2.82998 2.81062 2.80597 3.8539 2.35315 2.40424 2.49145 2.68304 6.03885 2.26716 2.20241 2.08893 1.98263 1.8683 3.4866 1.83073 1.80882 2.26319 3.57254 2.8397 1.78706 1.85454 1.91463 1.74826 1.71988 1.81428 2.34884 5.07043 4.10567 2.10542 1.70405 1.61004 1.58696 2.02601 1.58043 1.67528 1.55348 3.21875 3.76992 1.43101 1.32723 1.32479 1.24571 1.23288 1.20082 1.19447 4.53478 1.17059 1.16645 1.05715 1.03196 1.28933 1.00616 3.45539 1.05516 0.972701 0.928542 0.911587 0.90789 0.917373 0.771946 0.700842 0.678336 0.635785 0.624132 0.623103 0.615022 0.606419 0.601362 0.591661 1.69185 0.85463 0.747865 0.593755 0.504719 0.498822 0.472399 0.462353 0.443828 0.374312 0.362587 0.354905 0.308204 0.290795 0.591038 0.250595 0.211224 0.144204 0.11246 0.221539 0.0852453 0.473484
threshold=0.85814890265464794 2272207568896.0005 52.500000000000007 2976967936.0000005 2639340032.0000005 44065000.000000007 10.500000000000002 22807797760.000004 2.5000000000000004 1342500032.0000002 9910000.0000000019 3.5000000000000004 20409752576.000004 23577500.000000004 16.500000000000004 16.500000000000004 18.500000000000004 257018503168.00003 15431679082496.002 1.055749833583832 0.96015870571136486 10012458.500000002 1641243017216.0002 1.0610433220863345 15431679082496.002 39950000.000000007 1.5000000000000002 2534073958400.0005 25188173824.000004 319609012224.00006 15431679082496.002 1.0805405378341677 1.223611116409302 8886216425472.002 4.5000000000000009 965089492992.00012 0.90081965923309337 1403053015040.0002 15.500000000000002 9885660160.0000019 15040192512.000002 19.500000000000004 49525000.000000007 15.500000000000002 2.5000000000000004 1192747520.0000002 0.90081965923309337 13.500000000000002 17050000.000000004 7.5000000000000009 3.5000000000000004 238043504640.00003 3.5000000000000004 15431679082496.002 20.500000000000004 9486763520.0000019 20005000.000000004 2.5000000000000004 4.5000000000000009 3003587493888.0005 2534073958400.0005 947099992064.00012 267201503232.00003 857518997504.00012 1.5000000000000002 15040192512.000002 1502282514432.0002 15431679082496.002 1.0154083967208865 1.0263854265213015 55025000.000000007 8.5000000000000018 3.5000000000000004 281349996544.00006 2272207568896.0005 20409752576.000004 221235003392.00003 3.5000000000000004 -1.4999999999999998 6618986496.000001 7.5000000000000009 6550000.0000000009 2.5000000000000004 2.5000000000000004 10012458.500000002 1.5000000000000002 430799994880.00006 2229993603072.0005 5104499968.000001 221235003392.00003 1.1548125147819521 0.92919799685478222 1.0313317775726321 273633001472.00003 2.5000000000000004 6.5000000000000009 4.5000000000000009 1.0263854265213015 1372000000.0000002 857518997504.00012 8.5000000000000018 2320342144.0000005 2.5000000000000004 19600000.000000004 20530000.000000004 15431679082496.002 5.5000000000000009 15431679082496.002 4.5000000000000009 21.500000000000004 22807797760.000004 9885660160.0000019 285655498752.00006 2.5000000000000004 1186103001088.0002 43285000.000000007 35100000.000000007 37945350144.000008 4.5000000000000009 132649996288.00002 2063839068160.0002 15431679082496.002 17875000.000000004 27005000.000000004
decision_type=8 2 2 2 2 8 2 2 2 2 8 2 2 10 2 2 2 2 2 8 10 10 2 8 2 10 2 2 2 2 2 10 8 2 2 2 8 2 2 2 2 2 8 2 2 2 10 2 10 2 2 2 2 2 2 2 10 2 2 2 2 2 2 2 2 2 2 2 10 10 8 2 2 2 2 2 2 2 2 2 2 10 2 2 8 2 2 2 2 2 10 8 10 2 2 2 2 10 2 2 2 2 2 10 10 2 2 2 2 2 2 2 2 2 2 8 10 2 2 2 2 2 10 10
left_child=1 12 3 4 9 23 8 17 27 15 64 25 -1 21 -15 45 -17 -8 -19 24 -4 22 73 52 47 36 -27 28 34 -30 95 -25 108 -24 35 -7 -12 41 55 97 -41 48 -18 -28 -35 46 -2 -9 49 50 84 -51 53 54 56 -39 57 110 59 -59 61 79 76 98 87 111 -44 -68 115 70 -70 -67 75 89 -56 -32 119 -3 -79 112 81 82 83 120 -38 86 -86 -11 -74 -13 91 -64 -43 -49 -55 -29 -47 -40 -53 -87 -63 103 -103 -57 -105 -104 -85 -83 -10 -42 -5 113 -60 -66 -33 116 122 -77 -52 -6 -48 -122 -22 -124
right_child=2 77 20 5 62 6 7 19 32 10 11 13 -14 14 -16 16 42 18 -20 -21 68 -23 33 31 -26 26 43 30 29 -31 72 114 -34 44 -36 -37 37 38 39 40 109 92 66 -45 -46 96 80 93 -50 51 118 63 -54 94 74 101 -58 58 60 -61 -62 100 90 -65 65 71 67 -69 69 -71 -72 -73 88 -75 -76 117 -78 78 -80 -81 -82 107 -84 106 85 99 -88 -89 -90 -91 -92 -93 -94 -95 -96 -97 -98 -99 -100 -101 -102 102 105 104 -106 -107 -108 -109 -110 -111 -112 -113 -114 -115 -116 -117 -118 -119 -120 -121 121 -123 123 -125
leaf_value=0.20576153227311542 0.053285598128481805 0.079318168865536637 0.032229868611984402 0.0081143351117106497 -0.00052102659424854171 0.069081041702370158 0.0049226664387706214 0.026098790213907704 -0.043194786436364298 0.025069396964406205 0.043001306925028654 0.029545443740062561 0.047458245451133391 0.12947367207338753 -0.0071568468416215421 0.11920865122909208 -0.037948301167299969 0.14764068715446055 0.019163698121249861 0.080866214586858109 -0.037141289619485943 -0.033972252969777031 -0.035915387803407542 0.074791822055640417 0.05061578142572274 -0.030595392727315623 0.1178083510702924 -0.036962559244527092 -0.0088797403960452752 0.098215709370936932 0.035510439705837296 0.0080039891326839068 0.033717131945939359 -0.020914193679648325 -0.032476229883483858 -0.025651608777556428 0.05800051344479517 0.022371312478719221 -0.033889893205989563 0.084116242745195385 0.0069917991362187836 -0.036745346533200135 -0.023486825727475451 0.016020650125692159 0.051958115956434209 -0.039343172530924696 0.0023885447780638319 0.0055256033492708462 -0.028932407557299162 -0.02225547047779642 -0.0059870928087623967 0.024186385256760781 -0.039478152211399831 -0.038713585355380414 -0.037228876553487007 -0.034856908278138941 -0.028008612206289946 -0.0060946569338598223 0.0059487247929783426 0.1196704369229747 -0.034555176454541661 0.0080587951564717545 0.0070330539548327355 -0.00021861356755655651 0.0043476207360921186 -0.025705784746039625 0.067209112400924476 -0.0051385953946888017 -0.024998229278364485 -0.036667265811990209 0.074190367798675577 0.034432659795144413 0.0037532447808613493 0.066252274769699512 0.010621195539044143 -0.025894369111266188 0.035016518998772637 0.062172329801978357 -0.030603537700885447 0.033524691952293358 -0.038847489137972466 -0.0032218785780678545 -0.0355980188270121 -0.031557049451640853 0.0018934075900761381 -0.032987256471732652 0.068274728982193222 -0.023842672338298745 0.070888428067406459 -0.0204457375741647 0.0083616723913964245 -0.040977329524935213 0.009798800245162817 -0.038997878126348348 0.0051962556871233091 0.0057479976290149924 0.0012955278788380257 0.0083927370930872557 0.090252089395994786 0.0087779873713528401 0.07553697279435323 0.034240284900134289 -0.033846018632627102 0.019726608895800291 -0.022816328032798067 0.0075523823103052015 0.0069557041741470805 0.036597143197933238 -0.0046869517871242867 -0.030009675287291721 -0.028115935670014469 0.090586719075362476 -0.027253532253313791 0.045640181008249958 -0.022544839749783233 -0.046672268892595813 0.0087205369023200686 0.0027421170100072802 -0.036110684189004344 -0.024131586171338953 0.03653960991534988 0.0025454409893975348 0.0027875836906188401 -0.029154156716818414
leaf_weight=3.4363048067316395 0.89832185162231581 0.88909269822761405 1.3994057960808302 0.7070552832447129 1.0149572207592457 1.4754260363988634 0.8087410954758506 0.94338683178648342 6.448840334080157 0.97088540298864134 1.1145233986899246 0.8567164046689848 1.5267928945831952 1.4555084914900356 1.3344466965645549 1.0186761999502767 3.2709398064762354 4.2539577023126185 1.1438789241947231 0.86602096632122982 3.0061562513001325 2.2136366260237983 2.6566338674165308 1.3595708953216665 1.4455000343732534 1.6533632399514311 0.73871482163667668 2.948549008928238 1.433751691598445 4.0056921141222119 0.72308802139014039 0.71014730678871252 0.76137824496254403 0.75886083859950337 1.9381299205124376 1.108783926349133 0.81269774772226977 1.0467395489104117 2.1987130660563703 1.5629322608001532 0.74187463801354203 2.883880826644599 0.93368055345490608 1.2490519131533799 1.4124664622358976 12.914505027234551 0.89955707034095977 0.78907563956454385 1.4414698630571354 0.84553906274959345 1.2705817339010539 1.6658004857599737 3.8773825936950734 3.5516323545016339 3.0287322402000418 18.538672568742193 1.3383580613881338 1.2763122478499989 0.77489795582369048 0.71884377533569921 2.3360813641920686 0.70861911773681674 0.74080518307164922 1.0021907356567679 0.82925781561061551 1.1136312549933789 0.66564017860218871 1.2278460534289477 1.0535335913300508 2.8642372428439558 0.97001717891544093 0.74585467251017679 0.85003750724717964 3.6811731178313494 1.4539439328946171 1.1305779516696932 0.73363409936428059 1.6308359205722809 1.6528135915286839 0.76548609044402827 3.6054901969619086 1.1336184465326367 2.5763362203724682 1.7920043827034535 0.91825501155108202 2.0283484910614793 1.0712790102697907 0.96084007900208235 1.0251221461221574 0.72991501819342375 0.69971816381439467 20.720874144230038 0.6574896965175866 3.6655627368018031 0.80020147096365679 0.78178710769861925 0.94154421985149461 0.69864272559061635 1.4482801309786735 0.68711166409775604 1.3452855432406066 0.75009585265070144 2.1904188995249574 1.1263784533366554 0.88485328899696458 0.72414521779865015 0.7429284001700579 0.70067694969475258 1.2046112134121356 1.576177129987627 1.3506978042423723 1.4420997640118001 1.2594570624642072 5.220447885338217 0.86557446792721748 13.612771034706382 0.6889643515460192 0.88579719746485341 2.7066973615437746 0.98352833557873953 0.70196303213015177 0.89395552314817905 1.8262660354375841 1.4697066992521284
leaf_count=424 126 119 194 104 155 203 104 133 954 138 146 122 223 199 194 147 498 575 158 117 461 318 390 195 206 241 106 436 202 575 104 99 113 114 272 162 111 155 326 216 111 423 139 185 199 1948 128 112 204 121 176 238 569 517 441 2715 195 178 106 98 344 102 116 149 122 163 100 190 162 436 147 108 123 525 209 166 112 203 231 111 526 160 376 257 132 296 146 146 138 106 106 3218 100 529 116 112 142 103 206 100 196 112 326 162 131 103 109 100 177 239 203 195 181 709 126 2083 104 115 391 153 104 132 275 225
internal_value=0 0.126386 -0.00184974 0.00193544 -0.00467614 0.0154721 0.0300544 0.0666742 0.00915465 0.00153316 0.00883976 0.00287367 0.174085 0.0302862 0.0802281 -0.015504 0.0173197 0.115105 0.128075 0.0184262 -0.0305297 0.0134672 0.0261232 -0.00585084 0.000678014 -0.00491385 0.0353948 0.0272553 0.045179 0.0731615 0.00316135 0.0380172 -0.0288589 -0.00731002 0.00397689 0.0328183 -0.00835315 -0.0103161 -0.0185206 0.00748308 0.0312379 0.00346657 -0.0149253 0.0817952 0.0279907 -0.0242364 -0.0101363 -0.0188439 0.0117521 0.0175195 0.00206716 0.0414872 -0.0122753 -0.00570939 0.00224773 -0.0255187 0.0121971 0.0189973 0.0280374 0.0651369 0.0106518 0.0347171 -0.0328509 0.0564679 0.04305 0.0507687 0.0148119 0.0353564 -0.0351321 -0.0077279 0.0317507 0.00217655 0.0294908 0.0528333 -0.022651 0.00315838 0.00328686 0.0457442 0.0194227 0.00232548 -0.0182036 -0.00717397 -0.0153338 -0.000539966 0.0261382 0.0109255 0.0489977 0.000913297 0.0528579 0.00757371 -0.0372524 -0.0390653 -0.0278357 -0.0315675 -0.0312063 -0.028724 -0.0366865 -0.0241795 0.0701095 -0.0229241 0.0629752 -0.0284462 -0.00729012 -0.0316726 -0.000411577 -0.0242929 -0.0215533 0.0198563 -0.0384497 -0.0196968 -0.0171474 0.0610535 -0.0169116 0.0414813 -0.0111046 -0.0409321 -0.0250527 -0.0167197 -0.0297911 -0.0164976 0.0208676 0.0261508 -0.0294734 -0.0151035
internal_weight=0 9.13584 238.186 211.294 142.428 68.866 40.6377 13.9161 26.7216 117.535 82.6173 71.3343 4.9631 15.0994 2.78996 34.9177 7.11678 6.20658 5.39784 7.70955 26.8911 12.3094 10.0958 28.2283 6.84353 56.2349 3.64113 18.3067 9.96178 5.43944 8.34496 2.93529 8.41483 4.82796 4.52234 2.58421 52.5938 51.4793 32.0396 6.77834 3.88098 19.4396 6.09811 1.98777 2.17133 27.8009 13.9449 5.39803 15.8983 14.4568 9.49497 4.96181 25.293 21.4156 17.0638 25.2613 12.5811 11.2427 9.18498 1.99516 7.18983 4.85375 24.8935 4.11627 11.283 9.35129 2.82717 1.89349 25.4917 4.88779 2.02355 1.85949 4.61462 5.2678 4.48268 2.73946 2.73212 4.17274 3.28365 2.79984 13.0465 9.44104 7.60674 5.03041 5.51769 4.70499 1.98953 1.93173 1.87516 1.58663 22.1614 21.4617 3.54137 4.45464 4.35183 3.73034 13.856 2.89736 3.11408 2.71546 2.0539 24.2146 3.66466 20.5499 2.01123 2.91456 2.53493 1.8343 7.65345 2.31805 2.05775 7.49181 2.03436 6.04971 1.57572 20.6039 6.99109 2.01638 3.97728 1.99849 2.49548 1.59592 6.30213 3.29597
internal_count=36123 1200 34923 30836 20960 9876 5786 1934 3852 17100 11918 10337 647 2167 393 5182 1074 837 733 1097 4087 1774 1456 4090 980 8170 532 2608 1414 777 1194 420 1244 703 637 365 7638 7492 4699 995 566 2793 927 291 313 4108 2018 774 2270 2066 1352 714 3670 3101 2468 3704 1818 1623 1316 276 1040 696 3860 593 1581 1297 429 290 3893 745 309 271 646 753 650 385 420 553 434 398 1892 1366 1106 730 785 674 278 284 261 228 3440 3334 523 641 633 548 2090 429 444 396 298 3549 541 3008 293 429 366 260 1131 350 307 1026 287 831 225 3148 1065 281 567 308 364 236 961 500
is_linear=0
shrinkage=0.05


Tree=4
num_leaves=136
num_cat=0
split_feature=14 9 2 4 9 9 4 16 9 16 4 9 0 5 6 0 5 16 6 0 6 16 16 16 0 0 4 16 16 9 9 16 9 16 16 6 9 0 9 16 6 14 4 16 4 4 16 16 2 6 4 14 16 16 16 0 0 9 16 14 4 16 4 16 0 5 16 16 0 5 9 4 2 9 16 0 16 0 0 6 16 16 16 6 16 16 2 2 16 6 9 2 0 4 6 4 16 16 5 4 16 9 16 9 2 6 0 16 16 6 5 14 16 9 9 4 2 5 16 16 0 5 16 16 16 6 16 14 16 2 16 16 16 6 4
split_gain=12.5997 13.2552 12.9113 11.7643 6.99488 10.3033 7.53486 5.52669 5.68148 5.0052 8.83387 4.72533 4.4459 4.53252 3.60344 3.20515 3.07038 7.94579 5.5035 6.88406 10.2298 7.66727 12.3772 9.96365 8.28178 7.07061 5.84114 5.12989 4.02887 3.71644 2.97123 5.17652 2.88575 4.09109 7.12965 4.43679 3.09195 2.8577 2.65229 2.60779 2.59316 2.50822 5.08817 2.4223 3.72776 3.52815 3.89988 4.06168 2.28867 2.13862 2.25799 1.95268 1.86077 1.84466 1.76553 1.71257 3.72883 1.63636 1.73215 2.02921 1.72919 7.12554 5.72333 2.21184 6.04001 2.32449 3.78264 3.58253 2.29567 2.24964 2.84733 3.34582 5.92891 2.07851 2.2019 1.95295 2.0017 1.92261 3.80566 1.84719 1.71231 2.04784 4.69169 3.76543 1.99019 1.66465 1.55682 1.41595 1.29607 1.23321 1.18002 1.16781 1.50964 1.11766 1.10889 1.10784 1.09767 1.79126 0.964793 1.11378 0.959031 0.936558 0.935033 0.890861 0.886808 0.885966 0.870515 1.50864 1.90141 1.84628 0.839536 0.786757 0.772023 0.720528 1.12082 0.674582 0.659869 0.980765 0.554032 1.90177 0.533106 0.500776 0.487167 1.6768 0.466658 0.415401 0.387797 0.348582 0.307236 0.189308 0.136736 0.321665 0.0815864 0.290778 0.0404862
threshold=0.93788579106330883 1502282514432.0002 3.5000000000000004 162.50000000000003 2534073958400.0005 2272207568896.0005 2706792.5000000005 623574400.00000012 238043504640.00003 353154240.00000006 17.500000000000004 3478009020416.0005 2990000.0000000005 1614838497280.0002 18635549696.000004 10012458.500000002 10258036031488.002 547973344.00000012 28667361280.000004 25637550.000000004 15719972864.000002 284732960.00000006 182831624.00000003 392751328.00000006 33040000.000000004 49995000.000000007 17.500000000000004 191023048.00000003 319604288.00000006 1796207542272.0002 947099992064.00012 484934320.00000006 947099992064.00012 330540864.00000006 217919384.00000003 15040192512.000002 430799994880.00006 10012458.500000002 319609012224.00006 304272256.00000006 11139666432.000002 1.2014492750167849 48.500000000000007 246933488.00000003 41.500000000000007 1.0000000180025095e-35 386486432.00000006 534678480.00000006 3.5000000000000004 20409752576.000004 162.50000000000003 0.91715687513351452 585148672.00000012 477734368.00000006 729047040.00000012 42525000.000000007 62007040.000000007 16958862393344.002 680755744.00000012 0.99902170896530162 6172000.0000000009 429891216.00000006 12700000.000000002 414704784.00000006 14625000.000000002 4500507459584.001 337513952.00000006 187912256.00000003 3505000.0000000005 2863728427008.0005 8886216425472.002 48.500000000000007 3.5000000000000004 15431679082496.002 233529840.00000003 9025000.0000000019 382077536.00000006 76120000.000000015 91375000.000000015 16769336320.000002 603527168.00000012 505581696.00000006 470250032.00000006 18635549696.000004 620897312.00000012 176860728.00000003 2.5000000000000004 1.5000000000000002 426817088.00000006 15040192512.000002 679305019392.00012 2.5000000000000004 83395000.000000015 11.000000000000002 15040192512.000002 249.00000000000003 560038720.00000012 597610592.00000012 2693151457280.0005 406.50000000000006 516291040.00000006 965089492992.00012 277176880.00000006 121967497216.00002 4.5000000000000009 25188173824.000004 14625000.000000002 249455464.00000003 202248760.00000003 7843499008.000001 364785991680.00006 0.98971715569496166 215286648.00000003 545788002304.00006 302567505920.00006 650075.50000000012 3.5000000000000004 1614838497280.0002 302185760.00000006 324973616.00000006 3450000.0000000005 2693151457280.0005 343207488.00000006 302185760.00000006 185912640.00000003 12074189312.000002 421876624.00000006 0.89954125881195079 452706608.00000006 2.5000000000000004 640899072.00000012 634210432.00000012 623574400.00000012 18635549696.000004 41.500000000000007
decision_type=8 2 2 2 2 2 2 2 2 2 2 2 10 2 2 8 2 2 2 8 2 2 2 2 10 8 2 2 2 2 2 2 2 2 2 2 2 8 2 2 2 10 2 2 2 2 2 2 2 2 2 10 2 2 2 10 10 2 2 10 2 2 2 2 10 2 2 2 10 2 2 2 2 2 2 8 2 8 8 2 2 2 2 2 2 2 2 2 2 2 2 2 8 2 2 2 2 2 2 2 2 2 2 2 2 2 8 2 2 2 2 10 2 2 2 2 2 2 2 2 10 2 2 2 2 2 2 10 2 2 2 2 2 2 2
left_child=1 12 3 9 5 6 7 8 49 93 -11 96 13 38 115 40 18 27 19 32 25 22 -22 -23 30 53 -24 -18 -29 91 -25 -32 36 34 124 -36 39 -20 -1 -10 102 54 -43 44 90 46 122 -48 100 111 103 -5 86 -21 57 130 101 58 60 -60 63 85 -63 64 65 69 67 -67 87 70 105 72 75 74 -73 -72 118 116 -79 -76 81 82 -80 -84 -82 -62 -35 -69 -16 134 -27 92 -30 -3 126 -91 -6 -98 -59 -100 -41 -57 -8 -51 -4 -13 -75 108 -108 -109 -87 -2 -113 114 -47 -7 132 -118 -77 -120 -42 -38 123 -45 -34 -86 -88 -15 -52 -125 131 -9 -65 -134 -66
right_child=4 2 104 51 11 14 15 55 16 10 -12 41 -14 127 88 -17 17 -19 37 20 21 23 26 24 -26 43 -28 28 29 -31 31 -33 33 52 35 -37 121 -39 -40 48 120 42 -44 45 -46 113 47 -49 -50 50 128 -53 -54 -55 -56 56 -58 98 59 -61 61 62 -64 77 89 66 -68 68 -70 -71 71 73 -74 106 79 76 -78 78 80 -81 84 -83 83 -85 125 110 94 -89 -90 95 -92 -93 -94 -95 -96 -97 97 -99 99 -101 -102 -103 -104 -105 -106 -107 107 109 -110 -111 -112 112 -114 -115 -116 -117 117 -119 119 -121 -122 -123 -124 129 -126 -127 -128 -129 -130 -131 -132 -133 133 -135 -136
leaf_value=0.096463977276122381 0.0076556356408430913 0.031526476716286327 0.19570449833805964 -0.038023177845195329 -0.045696900152373925 0.040150156420585614 0.0012083314313786927 -0.023719274045718698 -0.031445991181037719 0.0083492169969622294 0.16304314160181543 -0.041553142683154132 -0.040226474304575793 -0.03061967120245376 -0.023117570240722141 -0.041923203361914019 0.082728010782724917 0.12473283619959206 0.032008588029987704 0.11467448645451472 -0.022531504499914663 -0.036160809664698305 0.025648564332582214 0.1206766520659848 -0.028043883987930375 0.021416208957207878 0.20654462206785504 -0.037965971024581824 -0.021146883419180716 0.083034110095749292 0.084872643921585125 -0.028292745472245862 -0.030044361166898032 -0.038831017497502535 0.11311997164320031 -0.002215897785077589 -0.042894553869275293 -0.042001998255947706 0.0065009604526420324 0.058877953015411044 0.0075108606974760772 0.094083759667009575 -0.0255216520906065 -0.029551317918851634 0.075683856048651271 -0.026320958388778855 0.071876360234774866 -0.023903960026299922 -0.023273618278358069 -0.0022085879360270893 -0.030721973956812205 0.023280206090454426 0.036287751965807392 0.016583090000123171 -0.039084314925134082 0.0023329507929828043 -0.033753876242635844 -0.040645955833257211 -0.020093650741612134 0.055713349093770514 0.023917515889221787 0.12599504434555786 -0.005659449074829067 -0.037692075778967646 0.022867510541766653 -0.024682288818613233 -0.03165483305704931 0.10534717944920238 -0.0018044943161212368 -0.041281349698153315 0.041386349776907375 -0.025991776660911736 0.090898956239631068 -0.039687253063946937 -0.0051083304891502658 -0.036372101465040919 0.036477011046657196 0.06389394620943499 -0.036226993220308722 0.067796978217737155 0.052636637358452865 -0.041779807424075582 0.081218023095436756 -0.022072749198839579 0.0092674115093039217 0.0095163746680763488 0.0087514478687886806 0.017351823934161566 0.036062758102755575 -0.020954901932241313 -0.029340173498799856 -0.028475872081528544 0.042304250738966681 -0.022758830354071034 0.03738189654754908 0.034976946128039872 0.034210769014609975 -0.030267377616507329 0.026872585886146584 -0.025132788998049223 0.00089118856512851766 0.068170838008276988 0.064187366327987258 0.049855629493329306 0.046689216270052243 0.0077135386745837906 -0.021716707740714939 0.020176082277239486 0.050917023998644562 -0.038608067357009654 -0.038764959960979062 0.0032516087863390395 -0.042966363535835918 -0.036631047121410402 0.024957913220689944 0.13494961361468211 -0.026403896820075712 0.020950726706566548 0.0381116128885454 -0.029567496086441488 -0.031926123858606402 -0.0036521072606001343 -0.03064696721947829 0.0033468203374330632 0.0071104666037163297 -0.025808609242218245 -0.025236643458302416 0.0026119465505521893 0.0011082828527774818 0.036837429614786588 -0.042053064066724322 0.0074918757451801392 -0.022953003610451758 0.00686260673067602 0.089894921652252491
leaf_weight=1.0006558634340783 0.72098472993820717 0.80958289885893264 0.97951598651707117 3.2855498353019357 10.544885027222334 1.7352956826798611 0.9439287642016978 0.95063771679997244 1.7712360760197059 1.5497137727215888 1.7611521487124262 5.0517369932495084 4.2100183651782572 1.6521780071780088 0.90557524235919096 11.263432667590678 1.2146674669347683 1.2383428658358742 0.79956996673717995 0.77282476518303456 0.86457186099141781 2.7196065778844041 0.9550185585394505 2.7540960679762065 1.3408840084448455 1.0744081502780352 1.4769101431593297 3.2682233601808548 0.77335343509912502 0.83469617785885919 0.80873186467215452 1.3652122276835141 1.5793434451334163 3.5993803963065147 2.0137127172201876 1.0878495764918623 6.1346786757931113 5.3949492992833257 1.6335289091803131 2.1708411700092261 0.72570316353812825 0.68931167339905997 1.0976153197698293 1.5163138178177198 1.3423458891920743 1.1697672177106127 2.6448368420824413 0.96438884921371926 0.91779609769582737 1.0874295462854209 1.6709133670665326 1.0204199212603269 0.70703840069472779 1.2289005704224107 3.713451085612177 0.90218380652368091 2.1753688552416861 4.4765232000499955 0.70918069453909938 1.3248457061126826 1.0026956559158851 0.9382901415228847 1.254042452201247 11.091986700426789 1.0323724169284099 1.0257228724658478 1.8076430461369453 1.2042940412648029 1.0697766374796627 4.8784558619372538 1.1528537655249254 1.1380172865465259 1.4363953331485388 3.9780656704679123 1.2259546518325808 2.7761452165432274 0.70329646067693818 0.71591870626434406 2.7403188771568221 1.0802021468989549 0.91085068183019879 5.2084292457439005 1.2410742454230788 0.8334730309434234 0.67297101253643621 0.66546473000198592 0.68796317558735642 1.2033915203064678 0.71147706871852279 0.76122391456738092 1.4902625270187853 1.3903872384689746 1.131272662896663 0.87953704874962568 0.68494655098766077 0.73457591189071536 0.75081666512414758 1.6106063281185923 0.92321493849158276 1.0645687403157351 0.95701455743983377 0.65161445597186685 0.71119195828214288 1.4644284094683824 1.0314321145415304 0.7192786163650452 0.80967507418245144 1.1124748326838014 0.94449805747717619 3.5178953977301717 3.5762531459331512 0.86780967656522978 6.2039261274039745 6.4979412471875548 0.97389440611004818 0.84128735307604063 1.176834155339747 1.0890378216281531 0.67050758888945017 1.5199793861247597 1.8526478428393602 1.1540973153896628 1.6609412669204173 0.86462013563141205 0.73776063602417696 1.1229936257004736 1.0731668481603263 0.89115141099318851 0.94854825595393766 0.6958579602651298 5.4187403689138591 0.72614861652255058 0.89470833027735241 0.7459189803339541 0.74180801957845677
leaf_count=117 104 102 128 453 1662 223 124 137 229 193 224 771 522 213 125 1717 167 176 128 100 125 392 128 358 187 148 190 458 116 116 109 172 228 529 277 158 878 873 186 309 110 103 163 218 190 174 389 135 135 156 244 146 103 166 589 141 347 675 106 194 149 130 185 1693 152 143 264 168 159 787 152 156 190 602 184 398 107 107 414 160 135 779 182 124 105 97 102 176 99 113 213 209 159 119 101 117 116 250 130 161 137 100 99 205 133 107 118 162 141 552 543 122 884 966 138 111 169 167 99 231 291 167 245 127 102 167 160 126 138 101 819 107 135 111 112
internal_value=0 0.0370321 0.0710285 0.0367297 -0.00279384 0.00543664 0.0023056 0.00739475 0.0115358 0.0820637 0.110327 -0.0121516 -0.00701937 0.0222431 0.0738771 -0.0289843 0.0167235 0.0415692 0.012454 0.0171482 0.0311175 0.0659805 0.122339 0.0345177 0.06598 0.0103065 0.165003 0.0171739 -0.00266495 0.027332 0.0920015 0.0278933 -0.00276848 0.0141342 0.0427198 0.082458 -0.0183482 -0.0291476 0.0586401 0.00827931 0.00695041 -0.00794036 0.038548 -9.7385e-05 0.0308003 -0.00860424 0.0137778 0.046669 0.028606 -0.0180211 0.00634363 -0.0217565 -0.0115053 0.081169 -0.00929866 -0.024795 0.00257112 -0.00756252 -0.00539037 0.0314636 -0.00676022 0.014767 0.0734961 -0.00920922 -0.00183048 -0.00785078 0.0179173 0.0400694 0.0604803 -0.0132306 -0.00697151 0.00168518 0.0250927 -0.0131131 0.0169708 0.000813956 -0.0126861 -0.019718 -0.00530026 0.0396879 -0.0138344 -0.0229574 0.00129077 0.0463197 0.0168857 -0.0180621 -0.0217025 0.0802077 0.00690687 0.0542677 -0.00803176 -0.00364509 0.0181986 0.00539247 0.007642 0.0096399 -0.0393238 -0.00549775 -0.0299307 -2.88342e-05 0.0458777 0.0464625 0.0428276 0.0335618 0.16197 -0.035167 -0.0237632 -0.00957697 0.0218589 -0.0233506 -0.0307997 -0.0330059 -0.037612 -0.029361 -0.00247171 0.10157 -0.0314323 -0.00422316 -0.02487 -0.00315069 -0.0218769 -0.0379415 -0.0152533 -0.00118912 -0.0197027 -0.0141099 -0.0136673 -0.0216459 -0.0222121 0.0271792 -0.037633 -0.0125462 -0.035573 -0.0120354 0.0741362
internal_weight=0 20.7044 11.3169 9.30596 225.066 119.984 115.79 100.293 89.4687 4.99999 3.31087 105.083 9.38753 5.17751 4.19364 15.4969 76.5046 9.85094 66.6537 60.4592 35.1823 12.285 3.2965 8.98853 6.26892 22.8973 2.43193 8.6126 7.39793 4.12971 4.92804 2.17394 25.2768 12.1712 5.41867 3.10156 13.1057 6.19452 2.63418 5.81689 4.23347 92.1762 1.78693 20.8956 3.90702 16.9886 8.34696 3.60923 4.04565 12.964 5.17132 4.30597 6.7525 2.00173 90.3893 10.8247 3.72917 86.6758 80.2115 2.03403 78.1775 7.43675 2.19233 70.7408 42.2962 39.0263 6.31083 4.50319 3.47746 32.7154 27.837 22.066 8.25918 13.8068 3.44417 6.82278 5.66993 28.4445 13.446 2.30616 12.7301 10.0233 4.81487 2.07455 2.70682 5.24441 6.04546 2.40769 1.61705 3.26998 2.56467 3.29501 1.90463 1.68912 2.44608 1.4958 12.9063 2.36142 6.46431 1.98778 3.12786 1.5538 1.65512 2.55186 2.01095 5.77102 10.3626 6.38454 1.75417 4.63037 4.24172 7.79272 7.07174 8.6416 2.14366 2.57658 14.9985 2.26587 4.96663 2.19049 2.57835 7.28878 4.73773 3.07679 2.3171 1.79596 1.76113 2.54333 2.61946 1.56048 7.09553 1.67679 12.7326 1.64063 1.77418
internal_count=35915 2662 1498 1237 33253 17391 16833 14492 12841 638 417 15862 1164 642 558 2341 10988 1401 9587 8586 4971 1661 443 1218 826 3310 318 1225 1058 600 639 281 3615 1760 765 435 1855 1001 303 810 624 13834 266 3044 551 2493 1215 524 581 1853 743 599 995 266 13568 1651 588 12979 12013 300 11713 1104 315 10609 6321 5827 910 646 503 4917 4130 3252 1177 2075 500 987 835 4288 2013 344 1906 1499 720 306 407 789 892 344 224 494 361 484 275 221 363 230 2028 366 966 291 446 241 223 361 261 878 1575 973 259 714 640 1110 1006 1278 312 334 2275 336 728 330 401 1045 691 446 330 272 262 339 382 228 1063 244 1939 246 264
is_linear=0
shrinkage=0.05


Tree=5
num_leaves=121
num_cat=0
split_feature=14 0 8 3 3 6 8 14 6 5 3 14 3 9 8 3 9 9 9 0 6 14 5 0 3 8 8 9 0 6 8 0 0 8 13 0 9 8 9 14 14 3 9 8 8 9 8 8 0 8 0 0 8 3 3 9 8 14 9 9 0 8 0 14 14 9 8 9 3 3 9 0 0 0 9 0 8 0 3 9 5 5 0 5 9 0 8 8 6 8 3 0 3 8 8 9 3 0 14 9 0 8 0 9 9 9 14 0 8 8 8 9 8 0 6 8 8 5 8 0
split_gain=12.2382 6.44683 5.39432 7.51296 5.67576 6.99516 6.27343 5.86142 7.64253 5.08664 6.54072 5.4547 4.72514 4.65929 6.5951 6.4308 4.32454 4.24383 6.12022 4.56935 3.86032 3.69896 3.53735 3.37607 6.18785 3.52068 3.00777 5.73335 3.21277 2.82492 2.78813 2.70299 3.87746 6.49434 5.62678 2.91776 3.83061 5.44664 2.67925 2.55802 2.45943 2.33025 2.32562 3.72958 3.1726 2.70694 2.27399 2.0778 1.891 2.63853 1.83229 1.82655 1.78592 1.67288 1.99742 1.67232 1.52717 1.50314 1.61681 3.24161 1.82552 5.53728 1.5006 1.33755 1.51827 1.71906 1.55439 1.33753 1.31606 1.28466 1.73986 1.34612 1.26758 1.26305 1.21613 1.2063 1.31155 1.11205 1.11077 0.747527 1.45696 0.858697 0.981048 0.667138 0.652258 1.17722 0.871748 0.735492 0.624804 0.819055 0.621434 0.616244 0.607162 0.582476 3.76933 0.570017 0.54023 0.53674 0.53389 0.458557 0.44495 2.89025 0.403279 0.398312 0.468574 0.375663 0.371368 0.365244 0.888996 1.72328 0.30954 0.255858 0.251392 0.226678 0.193534 0.103103 0.0971469 0.0791316 0.0527979 0.00109705
threshold=0.90959277749061596 91375000.000000015 1.0000000180025095e-35 1372000000.0000002 1342500032.0000002 22807797760.000004 6614500.0000000009 1.087337911128998 33114659840.000004 2506454073344.0005 2137000000.0000002 0.91715687513351452 3065716992.0000005 965089492992.00012 2300000.0000000005 2639340032.0000005 319609012224.00006 1502282514432.0002 8886216425472.002 20005000.000000004 15040192512.000002 0.9630604386329652 2022330466304.0002 17050000.000000004 1625499968.0000002 6614500.0000000009 48901.500000000007 2229993603072.0005 10012458.500000002 17744098304.000004 950000.00000000012 33040000.000000004 13550000.000000002 177.50000000000003 1.0000000180025095e-35 9025000.0000000019 2063839068160.0002 950000.00000000012 8886216425472.002 1.1548125147819521 0.94459789991378795 2462681728.0000005 2063839068160.0002 363584.50000000006 1090000.0000000002 965089492992.00012 9000000.0000000019 10250000.000000002 23577500.000000004 4.5000000000000009 9999999.5000000019 9999999.5000000019 7100000.0000000009 6618986496.000001 4002999936.0000005 146291654656.00003 56.000000000000007 1.101020395755768 632997019648.00012 1186103001088.0002 35100000.000000007 48901.500000000007 59999750.000000007 1.0189577937126162 0.97227710485458385 1641243017216.0002 126.50000000000001 181831655424.00003 3368249984.0000005 4002999936.0000005 632997019648.00012 27005000.000000004 49995000.000000007 90019500.000000015 2063839068160.0002 2990000.0000000005 797000.00000000012 6550000.0000000009 1933499968.0000002 3771099906048.0005 14481093558272.002 16958862393344.002 6025000.0000000009 1271800004608.0002 267201503232.00003 28025000.000000004 5792000.0000000009 797000.00000000012 9885660160.0000019 6614500.0000000009 6324986368.000001 51050000.000000007 4002999936.0000005 797000.00000000012 56.000000000000007 3003587493888.0005 6618986496.000001 1550000.0000000002 1.2397372722625735 8886216425472.002 9999999.5000000019 48901.500000000007 22600000.000000004 2272207568896.0005 3771099906048.0005 257018503168.00003 0.66833335161209118 550000.00000000012 126.50000000000001 9.0000000000000018 560509.00000000012 3003587493888.0005 11232000.000000002 20530000.000000004 36896323584.000008 17.500000000000004 56.000000000000007 14481093558272.002 56.000000000000007 60150000.000000007
decision_type=8 10 2 2 2 2 2 10 2 2 2 10 2 2 2 2 2 2 2 8 2 10 2 8 2 2 2 2 10 2 2 10 10 2 2 10 2 2 2 10 8 2 2 2 2 2 2 2 8 2 10 10 2 2 2 2 2 8 2 2 8 2 10 8 10 2 2 2 2 2 2 8 10 8 2 10 2 10 2 2 2 2 8 2 2 10 2 2 2 2 2 8 2 2 2 2 2 10 10 2 10 2 8 2 2 2 10 10 2 2 2 2 2 10 2 2 2 2 2 10
left_child=13 2 3 -2 6 9 40 12 -9 10 23 22 46 14 110 17 -14 -15 -19 -20 -16 41 -12 24 25 42 27 53 51 107 -10 32 34 113 35 67 -37 116 52 -36 -4 -11 43 -6 100 50 -7 97 49 -25 -45 92 -31 54 -18 -50 90 58 84 -60 61 -61 -33 64 -62 -66 73 -23 -5 71 114 111 105 -67 -73 93 -77 -27 99 81 -81 82 -72 -3 86 87 -57 -86 89 -68 -53 -40 -29 94 -69 -96 -94 -8 -59 -75 101 -44 -83 -95 -105 -42 -17 108 109 -13 -1 -28 -49 -34 -71 117 -38 -98 -111 -74
right_child=1 83 4 68 5 7 47 8 30 21 11 29 16 15 20 106 26 18 19 -21 -22 31 -24 48 -26 77 69 28 -30 38 -32 62 33 -35 39 36 37 -39 91 -41 72 -43 44 45 -46 -47 -48 112 55 -51 -52 56 -54 -55 -56 57 -58 98 59 60 63 -63 -64 -65 65 66 88 75 -70 70 79 74 119 78 -76 76 -78 -79 -80 80 -82 102 -84 -85 85 -87 -88 -89 -90 -91 -92 -93 96 103 95 -97 115 -99 -100 -101 -102 -103 -104 104 -106 -107 -108 -109 -110 118 -112 -113 -114 -115 -116 -117 -118 -119 -120 -121
leaf_value=0.047789844804690756 0.11396446730246189 -0.0011095567039153221 0.032742945808777874 -0.029317447307402607 -0.036421807417089828 -0.046281939333700728 0.064717170439583957 -0.028968337420137876 0.12904626788543833 0.032149596951383412 0.093290508467523445 -0.024727001879149928 -0.042689712332133423 -0.025600688870616412 -0.030124889550149244 -0.00091507110239732775 0.044687783790373588 0.10819006942250875 0.061015061975930297 -0.032835859187834451 0.059073123251351251 -0.0040917505601912986 -0.019161312489820146 0.0328346153674548 -0.035422566526058553 0.10270574437074978 -0.025208104419821343 0.019547147689770301 -0.038444011760497693 -0.035758631704274256 0.0064246542608488279 -0.032682896804652306 0.0065715434757625205 0.10888066094909771 -0.039049570724801211 -0.035479144501370151 -0.0021474629538348416 0.091191418836179511 0.062230012496280088 0.032655302011799524 -0.0017824018285369243 -0.037140040924905908 0.094354064341244367 -0.00088923479524234043 -0.024628765438392361 -0.02366767171998788 0.013317864036299179 -0.021846142553080594 -0.030923814340162056 -0.039686606515276418 0.078120606969158235 -0.019871552566897006 0.024032590864869832 0.078709268430635193 -0.02485988196416053 0.024944706933653485 0.067316012862304944 -0.031690583508069706 -0.030063295895871284 -0.024225475797481365 0.040534950436326211 0.10078435216271404 0.023327456507390484 0.044638557565390882 0.036177436040470322 -0.027180963580548841 -0.04010733101750541 0.051194612458570259 0.024807328213701119 0.026975568364240338 0.0076308663014951084 0.056889989576132727 0.0024374709982169689 -0.0025326768445489804 -0.0042456529176039459 0.10416426292173427 0.017684583144650601 0.028989933424764427 -0.021524944018598398 0.035253571467510958 -0.025635440470201894 -0.024180392757533073 -0.043767237065775622 -0.044524700180493516 0.0097623019304699226 -0.0038149970983907887 -0.022148317462825095 0.059643439517898758 0.0074024972555332821 0.0075362116153766022 0.020134152260183599 0.0041988120264922551 -0.029046079544329723 0.054490788824400949 -0.030136635743756537 0.0044051563227675969 0.010892677414492111 0.012501485517354744 0.0077645927499189228 0.030864614690218957 0.027662249499874982 -0.0014305706963496883 0.0040162723112524695 -0.0047643226621667482 0.031734807604099212 -0.033880518036896443 -0.035834709978389043 -0.044166289697468504 -0.035040857846980661 0.0057384567945047496 0.15751053358689099 0.0034866079818759842 0.0060757243292997865 -0.019934155353265766 -2.1674012793796848e-05 -0.0075883564431282304 -0.023240747157036376 -0.0029756999981141383 0.033366310738360966 0.010654437166854179
leaf_weight=1.5165510606020682 1.3892674269154661 1.0396345728076983 0.78257089713588612 1.4881709329783919 2.7904692688025587 12.279412442352621 1.5719551979564124 1.4471527421846979 0.90429218858480431 0.79566876729950253 0.6989999553188706 2.9840335142798775 5.9474632097408167 1.0985611858777682 1.5783633361570539 1.0305088097229602 1.0759558933787077 2.4234290225431323 1.2098543001338842 1.9880035636015234 1.2508615870028732 1.174351740628494 0.65671649249270558 0.78060313826426764 2.5320363948121658 1.5696665709838264 1.070563341025266 1.1321150711737553 3.4498448227532199 2.6129978671669956 0.75970780570060015 1.9752661106176668 0.75517158862203249 2.7239983067847788 3.6838486506603649 2.5472208857536307 1.0849811965599663 1.0784317296929655 0.74234335124492612 0.78445452963933338 1.0690448330715359 2.9939939836040139 1.7214725897647443 1.0295321908779449 1.022662278730422 0.9460662594065069 1.34786991868168 0.8172252085059879 1.7004421683959652 3.9765479257330298 1.2966268793679772 0.69639764772728097 0.99893320584669698 2.4477219320833683 1.0412513390183447 0.97456268919632083 1.0888538444414735 1.8140672235749655 4.0443888613954213 0.98919453658163792 1.1741402018815286 0.94201304065063596 1.0193158998154102 1.0774272317066778 1.2869719802401967 1.2516531944274882 4.1916760611347854 3.4003508035093564 0.97803448466584075 0.92040725145488866 0.72199323028325668 0.83210879424586925 0.89833575906231888 1.1026262799277899 1.1829025740735231 1.2218284895643585 1.1920865518040953 2.1298425677232444 0.7978180544450878 0.72828275710344392 1.1083224653266368 0.98607437778264317 7.1123383902013302 8.1956021082587522 1.4901748006232081 1.1612121667712925 0.83855736488476396 3.0570259387604892 0.72908219695091236 0.72436221875250328 1.1139029595069585 0.83435608725994836 1.4567492781206963 5.1652630469761789 1.5879021137952805 1.7406353219412267 1.4410369005054235 1.3783125258050857 0.71766249835491169 3.9035886581987143 4.1081177592277527 1.053569274023175 2.6798142236657441 1.2080692094750705 0.80529229436069716 26.520235955715179 2.6339617394842207 7.6568266265094271 5.7213697810657322 0.78266159957274772 0.87449177773669351 0.8596626417711376 0.77115276828408241 0.69978215731680393 0.99395180121064186 1.3582977419719102 0.91604051226750005 1.1227839249186218 0.76903760386630893 0.6333748884499073
leaf_count=182 184 156 109 220 401 2042 222 221 133 106 104 464 871 120 166 139 150 275 142 227 164 156 107 111 364 196 159 167 520 373 109 293 112 397 525 374 161 159 114 108 164 407 204 140 154 130 212 110 256 597 183 106 135 338 156 148 157 273 576 139 169 130 153 159 182 177 665 480 142 126 110 116 142 169 177 179 169 289 124 101 172 141 1088 1296 219 159 124 423 112 99 167 121 224 667 209 262 174 195 104 570 614 159 388 173 112 4155 380 1210 921 126 108 129 113 104 146 192 143 170 114 99
internal_value=0 -0.00160376 0.000209246 0.0519622 -0.000967227 0.00259965 -0.0192511 -0.0113572 0.0462715 0.00942752 0.0023864 -0.0188461 -0.0153509 0.0427626 0.0773946 0.0197607 -0.00672579 0.0463392 0.0622406 0.00905526 0.0146911 0.0241813 0.0543743 0.0113779 0.0273898 0.0378971 0.000158692 0.0147353 -0.00341484 -0.0253548 0.0974543 0.0292769 0.0334928 0.0742543 0.0247828 0.0345306 0.00249803 0.0349583 0.00618117 -0.022591 -0.0276064 -0.0187232 0.0230424 -0.000749966 0.0392065 0.0311463 -0.0398476 0.0305728 0.00251505 -0.0239494 0.0538722 0.0120358 -0.017512 0.0568224 0.0136159 0.00683813 0.0388311 0.00975473 0.0130711 0.0056456 0.014821 0.0509235 -0.0124973 0.00765109 0.00225916 -0.00360024 -0.0101236 0.0440961 -0.00684278 -0.0131519 -0.0194776 0.0102416 -0.0303288 0.00550787 0.0319595 0.0476017 0.0799765 0.0762637 0.0156851 -0.0257861 0.00259268 -0.0301535 -0.0386833 -0.0402588 0.0315744 0.0387357 0.00302774 0.0482613 -0.0274299 -0.032995 0.00308156 0.045615 -0.00368473 0.0366813 0.0206603 -0.0153899 -0.011002 0.0501269 -0.0215204 0.0243564 0.0507245 0.0676943 -0.00731113 0.0470794 0.015772 -0.0327495 -0.0284369 -0.034323 -0.023504 -0.00504761 0.124152 -0.0157376 -0.0112966 -0.00921763 0.0179688 0.000480484 -0.0165302 0.0057297 0.0274502 0.00881609
internal_weight=0 228.778 219.543 3.85547 215.688 181.245 34.4422 59.3072 3.11115 121.938 83.3841 24.4583 56.1961 15.6046 5.22027 10.3843 42.5688 6.71985 5.62129 3.19786 2.82922 38.554 1.35572 58.9259 20.2001 17.668 36.6213 17.4249 12.86 23.1026 1.664 34.7643 31.7697 4.17895 27.5908 23.1225 5.62667 3.07945 5.18863 4.4683 29.9036 3.78966 13.9685 6.06269 7.90582 3.27223 13.6273 4.53865 38.7258 4.75715 2.32616 9.41014 3.61193 4.56493 2.11721 33.9686 2.89915 32.2682 29.7365 22.2149 18.1706 1.93121 2.99458 16.2393 15.1619 13.9878 12.7008 17.4958 2.46621 19.1964 15.2512 3.94524 29.121 7.05569 2.01501 16.3214 2.41392 3.69951 5.80403 13.3368 1.83661 11.5002 7.83433 9.23524 7.52153 5.70841 1.81312 4.5472 5.64512 4.91604 1.8103 1.5767 6.51098 13.9075 6.72889 3.32854 5.37887 2.95027 2.53173 5.00621 6.88316 2.77504 3.66589 7.17862 2.01336 27.5893 3.66447 17.9139 10.2571 4.53573 2.39104 1.93023 1.58838 1.45495 1.91436 3.92212 2.00102 2.56382 1.5517 1.53171
internal_count=35929 34026 32574 546 32028 26719 5309 8962 463 17757 12308 3789 8499 1903 620 1283 6245 764 644 369 330 5449 211 8519 2834 2470 5374 2521 1877 3578 242 4936 4490 613 3877 3244 837 463 743 633 4669 513 1985 854 1131 453 2254 640 5685 708 323 1357 508 644 306 4977 430 4721 4344 3271 2695 269 446 2426 2267 2098 1916 2407 362 2853 2272 581 4560 1040 293 2251 348 485 863 2000 273 1727 1198 1452 1073 801 272 642 876 764 273 235 927 1903 951 471 760 417 377 739 977 363 529 952 285 4319 519 2835 1625 704 290 288 223 216 272 536 304 344 240 241
is_linear=0
shrinkage=0.05


Tree=6
num_leaves=144
num_cat=0
split_feature=14 15 10 6 6 14 10 0 14 0 15 10 7 10 6 10 12 6 10 11 15 11 15 11 11 11 0 6 14 10 0 12 12 6 7 15 10 14 7 15 14 0 10 10 10 6 11 11 10 7 0 12 0 6 14 11 15 0 6 6 11 15 0 15 7 6 10 10 6 0 0 7 15 0 0 7 15 11 14 7 11 6 10 0 7 10 10 14 0 6 11 6 10 10 10 15 15 7 15 6 11 6 11 7 15 15 7 6 6 6 7 7 11 6 6 15 7 15 11 6 6 6 6 7 10 10 10 10 11 15 11 15 7 11 10 14 6 0 15 10 6 15 15
split_gain=24.3945 9.64006 8.70876 6.61056 4.4169 7.00148 7.40076 7.41269 6.95861 5.86691 5.72979 5.20923 5.30631 5.81686 4.19517 4.18459 3.35966 3.22784 3.0726 3.2379 3.05928 2.79944 3.36034 3.9511 7.81169 5.3114 4.414 5.71026 3.02462 2.98644 2.95853 2.87147 6.66896 2.64023 2.366 5.25662 3.88679 2.63734 2.35941 2.33568 3.22566 2.19149 5.24236 4.47606 5.28405 9.61307 6.2162 3.79791 3.13496 3.06135 2.31653 2.0074 1.84489 1.7173 1.67638 1.47666 1.97382 1.44887 1.42374 2.60097 3.03752 2.55759 2.32355 1.96206 1.41599 5.20542 1.64038 2.16558 1.30331 1.26862 1.26171 1.24119 1.23914 1.21889 2.66555 2.41486 1.19091 2.38754 1.06913 1.03119 1.12724 0.956746 0.841596 1.98171 0.93521 0.81291 2.28971 0.798007 0.777694 0.747166 0.65042 1.09346 1.62499 3.22981 2.37498 1.92489 1.11488 3.10718 1.32854 1.02933 0.932696 0.799761 0.637298 0.730915 1.95909 1.90045 0.632367 0.669936 0.621411 1.14367 0.610977 0.600287 0.57114 0.566275 0.473473 0.451497 0.444624 0.729614 1.91587 1.22398 0.61717 0.521892 0.498941 0.42144 0.399671 0.381455 1.39422 0.376172 0.368892 1.36948 0.328832 2.62323 0.31683 0.31407 0.303136 0.285218 0.276648 0.266486 0.257197 0.12229 0.0366407 0.0104725 0.00284818
threshold=0.66833335161209118 67.500000000000014 19713275904.000004 41358848000.000008 33114659840.000004 0.97377020120620739 8856295936.0000019 10424000.000000002 1.055749833583832 4525000.0000000009 14.500000000000002 5885136128.000001 1654550016.0000002 19713275904.000004 28667361280.000004 11352960000.000002 5.5000000000000009 18635549696.000004 15703311872.000002 2.5000000000000004 51.500000000000007 61.500000000000007 35.500000000000007 16.500000000000004 20.500000000000004 25.500000000000004 30025000.000000004 13981730304.000002 1.0610433220863345 15920517120.000002 49995000.000000007 19.500000000000004 17.500000000000004 10564976640.000002 2281500032.0000005 10.500000000000002 15703311872.000002 0.9630604386329652 2501623552.0000005 13.500000000000002 0.93788579106330883 5450000.0000000009 7635378688.000001 11352960000.000002 16160854528.000002 16769336320.000002 8.5000000000000018 13.500000000000002 12474756096.000002 2281500032.0000005 32850000.000000004 13.500000000000002 9999999.5000000019 15719972864.000002 0.87026646733284008 10.500000000000002 3.5000000000000004 550000.00000000012 9885660160.0000019 13981730304.000002 2.5000000000000004 3.5000000000000004 17050000.000000004 5.5000000000000009 1717500032.0000002 9885660160.0000019 8931045376.0000019 10496007168.000002 10564976640.000002 1005000.0000000001 19600000.000000004 3600000000.0000005 7.5000000000000009 48050000.000000007 32850000.000000004 2350000000.0000005 3.5000000000000004 7.5000000000000009 1.5105633735656741 1998750016.0000002 9.5000000000000018 25188173824.000004 23147515904.000004 2990000.0000000005 1702000000.0000002 20718568448.000004 17377695744.000004 0.80322581529617321 21005500.000000004 9120688128.0000019 9.5000000000000018 16769336320.000002 17377695744.000004 11352960000.000002 20718568448.000004 7.5000000000000009 5.5000000000000009 2584555008.0000005 2.5000000000000004 18635549696.000004 7.5000000000000009 9885660160.0000019 2.5000000000000004 2350000000.0000005 5.5000000000000009 6.5000000000000009 3600000000.0000005 17744098304.000004 9885660160.0000019 17744098304.000004 1953000000.0000002 3600000000.0000005 12.500000000000002 7843499008.000001 15040192512.000002 2.5000000000000004 3600000000.0000005 4.5000000000000009 2.5000000000000004 10564976640.000002 9486763520.0000019 9885660160.0000019 13981730304.000002 2159092480.0000005 23147515904.000004 9707380224.0000019 8618523648.0000019 8747505152.0000019 1.5000000000000002 4.5000000000000009 3.5000000000000004 5.5000000000000009 2350000000.0000005 7.5000000000000009 23147515904.000004 1.0082361102104189 13981730304.000002 19600000.000000004 25.500000000000004 34193857536.000004 9885660160.0000019 3.5000000000000004 3.5000000000000004
decision_type=8 2 2 2 2 10 2 10 8 10 2 2 2 2 2 2 2 2 2 2 2 2 2 2 2 2 8 2 10 2 10 2 2 2 2 2 2 10 2 2 8 10 2 2 2 2 2 2 2 2 8 2 10 2 10 2 2 10 2 2 2 2 10 2 2 2 2 2 2 8 8 2 2 10 10 2 2 2 8 2 2 2 2 10 2 2 2 10 10 2 2 2 2 2 2 2 2 2 2 2 2 2 2 2 2 2 2 2 2 2 2 2 2 2 2 2 2 2 2 2 2 2 2 2 2 2 2 2 2 2 2 2 2 2 2 10 2 8 2 2 2 2 2
left_child=2 3 -1 4 5 6 7 17 10 78 15 -7 13 51 21 55 52 -2 -17 124 -12 22 23 28 31 138 27 132 41 -29 81 32 -25 -32 35 -18 -36 -37 -38 54 71 47 -43 50 45 46 -45 64 -49 -46 89 -13 113 -30 -40 56 127 -34 61 -60 -61 -51 63 -63 65 -14 130 76 -28 -69 -42 -41 -55 74 82 -76 108 -78 -10 80 -16 -24 84 135 -3 86 -21 -5 106 -44 91 92 93 110 -94 96 97 98 101 -93 116 -95 134 104 -104 -105 107 -62 -68 -110 141 -72 -92 -8 -54 -91 121 118 120 -120 -118 128 -122 -74 -20 126 -89 -6 -96 -130 -66 140 -27 -65 -101 -84 -123 -87 -26 -127 -132 -71 -100
right_child=1 73 -4 87 8 11 16 -9 9 -11 20 12 14 -15 79 18 34 -19 19 85 -22 -23 30 24 25 26 68 29 53 -31 33 -33 57 -35 36 37 38 -39 39 40 70 42 43 44 49 -47 -48 48 -50 58 -52 -53 114 72 -56 -57 -58 -59 59 60 88 62 -64 133 66 -67 67 69 -70 90 111 -73 123 -75 75 -77 77 -79 -80 -81 -82 -83 83 -85 -86 137 -88 125 -90 115 112 99 94 95 100 -97 -98 -99 142 102 -102 -103 103 105 -106 -107 -108 -109 109 -111 -112 -113 -114 -115 -116 -117 117 -119 119 -121 122 136 -124 -125 -126 139 -128 -129 129 -131 131 -133 -134 -135 -136 -137 -138 -139 -140 -141 -142 -143 -144
leaf_value=0.14912706173617707 0.1182773088703527 0.0077853588042778275 0.0064856389500284536 0.010073026252711219 0.031339745267334122 -0.042985153590568093 0.0055305953177845167 -0.025731100748139574 0.0336492573551102 0.14508712848862437 -0.041209451423255605 0.10180515800142798 -0.030952823152984244 -0.026441766499661418 -0.026171092929328867 0.10069852867977545 0.064893575903872194 0.014353147344052106 -0.026069045937309129 0.04856703101329142 0.03720456388495294 0.062660491072998703 -0.043884738821364816 0.091102969568619352 -0.040064291769833081 0.0093638980273294623 0.019299662413194696 0.0080338385629094549 -0.042289525590086002 0.14230643771315041 0.061400933800399862 0.1044193000182207 0.021045755011167865 -0.023913466560014314 -0.027822145358711282 -0.040257285839490654 0.10070934132905576 0.031711970654478713 0.030550316762085708 0.017907523833349273 -0.024509988947620617 0.085698555912847196 0.0070280803313460651 0.14078359855382375 -0.036279819279999896 -0.029422914565144467 -0.0010032441650816542 0.081314199380025223 -0.0081843427860464613 0.06454044562829217 0.031552576994470068 0.0051674046024735827 -0.0024439296166773707 0.03605483637418052 -0.030850721369721553 0.035436842204530992 -0.037176981550756515 -0.033369400413701546 -0.035253503181711464 -0.030309528739166338 0.0060339016143406907 -0.021077610800975474 -0.031125069371568129 0.065750400507667617 -0.03888383768619362 0.069713396022530461 0.055623718035461359 0.032263661608507209 -0.03245766376731829 -0.0015169194204566767 0.040380393751044942 0.10336922127807038 0.0079048605678560396 -0.045073419801425069 0.06604266555036252 -0.020885419627812107 -0.031808553896725093 0.035957132142722358 -0.020997797880232292 -0.042863160136048559 0.025377526511720979 0.0068828545654456771 0.0021932661963435097 -0.032231195024584179 -0.042613048680013581 0.017384835277936866 -0.025810897219112401 -0.03229717628471207 -0.0018499249017917222 -0.0043580928676330245 -0.036533681720057713 -0.034374110786573049 -0.04013959955218125 0.076373167531593511 0.03454683394878174 -0.021838911707851148 0.074671245138726056 -0.028461306204883376 0.0057082289713564225 -0.030030275361691991 0.03266623297142026 0.0065452978902281068 0.054693280691236683 -0.032237433920147891 -0.020934542498373267 0.032855154919023521 0.0091008733787572831 0.068978269556524474 -0.02179530070331635 0.034301659172704967 -0.033682299517076741 -0.0024849820304972538 0.004322124733286959 -0.033229405035690947 0.037269183787118292 -0.042300410262058656 0.0050084716788689372 -0.031970534963378254 -0.0050970550946613843 0.054876416248524254 -0.035722582074120719 -0.022159302974062222 0.0029562028101344957 -0.027486487106651754 0.003880462967059533 -0.04344323019224141 0.021589681383396502 -0.0028732855922811123 -0.025605430304577487 0.033023891082984258 0.033572469369810128 -0.037134159360084816 -0.021532457217233805 0.014335994701420361 0.0015067324683921267 0.039742551326734189 0.006948563755026756 0.070826536493982392 -0.0076437884454539145 -0.014075117162555679 0.006198943821546463 0.0037071116995857096 0.0009112799911579968
leaf_weight=2.709200498647987 3.1043049213476506 0.71738362126052546 1.6338381213136015 0.64967181300744314 0.81448264420033112 6.2320227660238734 0.7885926272720124 1.1144677866250274 0.7623047009110443 0.9980461481027304 4.8105248762294641 1.9143930720165365 1.7043579495511942 1.1821734905242922 1.1577870347537085 1.274163954425602 1.1332517969422067 1.308374644257128 1.1464893543161434 0.9918741877190772 0.68863717513158906 0.73549020895734329 7.2580226222053152 1.4329971196129943 4.155698767397551 0.67006113938987277 1.1399121191352608 0.70939988829195477 5.6029853401705605 0.76851868070662022 0.75579405482858308 1.8639683434739707 1.0852799848653378 0.96645747916772962 1.316125745885073 4.239285062532872 0.94250986026599903 0.80585733614861954 0.83138390351086711 1.1836149012669921 1.0128787718713286 1.1649477509781707 0.74058371223509389 1.8290630155243008 2.758912784513087 1.5008837650530038 1.0339121753349898 1.2387987729161971 1.3922833064571021 2.0112339174374947 0.80923462053760964 0.80085908574983466 1.0975363529287276 0.71187838632613454 1.6862879274412987 0.72452878905460227 3.009632985573262 2.097246530931443 2.4967277329415065 1.6170788649469612 0.77265800721943412 0.76861661579459939 1.7292241081595419 0.68724549422040571 3.6142070246860367 1.4621819136664269 1.3265151227824383 0.79349281033500929 1.9325397084467111 1.0573630887083725 1.1780225783586502 1.2329429253004491 0.71292045712470997 9.1899441890418512 0.68313000537454971 0.75744269602000713 1.8279296988621356 1.2926996033638714 0.76318066800013196 6.1605189787223935 0.96330574853345741 0.74551902571693052 0.90714471740648173 1.9018324040807781 5.9004292930476367 1.202042213175446 1.1237320932559667 1.9130548723042005 1.0721990265883503 1.1878857305273411 2.8210447980090971 5.4377113985829038 4.2170372023247191 1.3292578640393919 0.74345290940254694 0.81703570764511813 0.96191161777824152 1.3868268276564775 0.783176888246089 1.5757443839684131 0.78458335716277439 0.75609948625788082 0.87175759160891153 1.8974360493011775 0.75944994064047933 0.78009917959570874 1.5189495356753471 1.4779183687642214 0.81511717708781339 0.7481568600051105 2.157783726695925 1.1000807406380773 0.82980814529582847 4.9943966749124229 0.68720644060522307 5.6005827700719237 1.7108221366070209 1.8559357039630411 1.2237443509511652 0.86873543495312322 2.6140678822994237 0.84001388214528538 0.87916271574795235 1.2832187712192533 1.7672442267648876 6.7484129909425956 1.070069982204586 1.1172682624310253 1.1025192462839184 0.77586655784398306 0.76414296496659495 2.9950728891417384 0.7978641795925796 1.3095469805411992 0.93318356713280071 0.63915855484083295 0.74313514493405819 2.2634957991540432 1.3616492790170012 1.7942910548299549 0.76661355327814817 0.85183964483439911 0.95610051043331623
leaf_count=300 384 114 181 100 118 919 107 154 99 132 702 275 260 188 194 178 135 186 173 134 107 115 1105 199 608 103 169 103 834 110 117 266 144 150 178 571 110 115 89 149 152 166 109 236 445 221 136 157 196 289 108 113 153 107 231 102 427 305 392 258 118 112 260 97 511 212 181 119 262 161 174 149 97 1521 109 120 248 176 106 1075 161 117 138 301 939 170 173 305 169 168 409 882 711 192 109 114 136 192 115 220 119 115 120 262 108 109 232 219 124 96 319 164 117 756 102 797 276 270 162 129 428 134 139 188 254 1095 171 157 147 100 103 420 121 201 137 100 109 300 199 291 104 128 136
internal_value=0 -2.64382e-05 0.107334 0.0031166 0.00528678 0.00260181 0.024348 0.0714808 0.0252197 0.0898969 0.0134392 -0.00175713 0.000286415 0.0511074 -0.00146447 0.0286368 0.0110335 0.0962625 0.046873 0.0284583 -0.0269377 0.000773599 -5.742e-05 0.00224463 0.0231983 -0.00245474 0.0277874 0.0627073 -0.00149617 0.108256 -0.0268285 0.062756 0.0294753 0.0226951 0.0231352 -0.0015742 0.0364968 -0.0252307 0.0476695 0.0307199 0.0461126 0.00108439 0.0115914 0.00603269 0.0174598 0.0607793 0.103215 -0.00412203 0.045262 0.00429461 -0.0233863 0.0828048 -0.0151773 -0.0286266 -0.00751518 -0.00525202 -0.0164542 -0.0141876 0.0134104 -7.52909e-05 0.0165949 0.0293678 0.00426184 0.0288957 -0.00688566 0.0213878 -0.00871765 -0.00516308 -0.0132299 -0.00894021 0.00786912 0.0798242 0.00360679 -0.0317686 -0.0182176 0.0309011 0.0207948 -0.00172677 0.00892053 -0.0338554 -0.00210135 -0.0389022 -0.0275363 -0.00521386 -0.0368271 0.0479565 0.0136534 -0.0311597 0.0349062 -0.0324764 -0.0103875 -0.00814268 -0.00265632 0.0118093 -0.011539 0.0307687 0.0399248 0.0219056 0.0423945 -0.0200434 -0.000791595 0.0618446 -0.00550674 0.00612719 0.0251298 -0.00931282 0.043462 0.0562629 0.0390204 0.00807648 -0.0204001 0.0254929 -0.0283705 -0.0279056 0.0210732 -0.0371557 -0.00502908 -0.010835 -0.0020643 0.0299294 -0.0178336 0.00724283 -0.0275745 -0.0164962 -0.0117342 -0.0341409 -0.0123717 0.0175723 0.0183979 0.0018027 -0.0282421 -0.0139442 -0.00942442 0.0487736 -0.0213517 0.0276074 -0.0112 0.06075 -0.0345997 -0.0395238 0.0280436 0.0013072 0.00442118
